{"learner":{"attributes":{"scikit_learn":"{\"_estimator_type\": \"regressor\"}"},"feature_names":[],"feature_types":[],"gradient_booster":{"model":{"cats":{"enc":[],"feature_segments":[],"sorted_idx":[]},"gbtree_model_param":{"num_parallel_tree":"1","num_trees":"100"},"iteration_indptr":[0,1,2,3,4,5,6,7,8,9,10,11,12,13,14,15,16,17,18,19,20,21,22,23,24,25,26,27,28,29,30,31,32,33,34,35,36,37,38,39,40,41,42,43,44,45,46,47,48,49,50,51,52,53,54,55,56,57,58,59,60,61,62,63,64,65,66,67,68,69,70,71,72,73,74,75,76,77,78,79,80,81,82,83,84,85,86,87,88,89,90,91,92,93,94,95,96,97,98,99,100],"tree_info":[0,0,0,0,0,0,0,0,0,0,0,0,0,0,0,0,0,0,0,0,0,0,0,0,0,0,0,0,0,0,0,0,0,0,0,0,0,0,0,0,0,0,0,0,0,0,0,0,0,0,0,0,0,0,0,0,0,0,0,0,0,0,0,0,0,0,0,0,0,0,0,0,0,0,0,0,0,0,0,0,0,0,0,0,0,0,0,0,0,0,0,0,0,0,0,0,0,0,0,0],"trees":[{"base_weights":[2.896394E-3,1.1626383E-1,-2.720766E-1,-1.8723512E-2,2.629954E-1,-4.326344E-1,-1.0926861E-1,-4.6555555E-1,-5.6468823E-4,-3.2357138E-2,3.185929E-1,-7.9888886E-1,-3.8758823E-1,6.197917E-1,-1.583146E-1,-5.882143E-1,-0E0,-1.6101064E-1,4.0322807E-2,-6.0899997E-1,5.8467746E-2,3.8664234E-1,1.11329794E-1,-8.9421876E-2,-0E0,-1.6504166E-1,-4.9810266E-1,-0E0,7.51E-2,-2.7660984E-1,1.6942708E-1,-0E0,-6.8020836E-2,-6.024305E-2,-4.415625E-1,9.372283E-2,-1.22111104E-1,-0E0,-7.521875E-2,5.260714E-1,-7.08E-2,2.5623333E-1,5.341667E-1,5.3210232E-2,6.978125E-2,-3.2262498E-1,-7.738095E-2,-2.1874961E-4,-5.2424526E-1,-3.990144E-1,1.595E-1,6.197917E-1,1.302632E-2,-2.6352942E-2,1.1056251E-2,-5.7666667E-2,-2.1874961E-4,-9.2088565E-4,2.2935418E-2,-3.0278409E-2,4.442709E-3,6.197917E-2,-0E0,-1.7261906E-2,3.51E-2,1.5122642E-2,4.827174E-2,5.7935417E-2,-2.521875E-2,-7.943749E-3,1.612E-2,-1.678571E-3,-7.521875E-2,-2.9078943E-3,-3.2416668E-2,-0E0,-5.4338235E-2,-4.615774E-2,-1.1477272E-2,-5.021875E-2,3.7510417E-2,7.51E-2,-0E0,3.51E-2,-9.383333E-3],"categories":[],"categories_nodes":[],"categories_segments":[],"categories_sizes":[],"default_left":[0,0,0,0,0,0,0,0,0,0,0,0,0,0,0,0,0,0,0,0,0,0,0,0,0,0,0,0,0,0,0,0,0,0,0,0,0,0,0,0,0,0,0,0,0,0,0,0,0,0,0,0,0,0,0,0,0,0,0,0,0,0,0,0,0,0,0,0,0,0,0,0,0,0,0,0,0,0,0,0,0,0,0,0,0],"id":0,"left_children":[1,3,5,7,9,11,13,15,17,19,21,23,25,27,29,31,-1,33,35,37,39,41,43,-1,-1,45,47,-1,-1,49,51,-1,-1,53,55,57,59,-1,-1,61,63,65,67,69,-1,71,73,-1,75,77,79,81,83,-1,-1,-1,-1,-1,-1,-1,-1,-1,-1,-1,-1,-1,-1,-1,-1,-1,-1,-1,-1,-1,-1,-1,-1,-1,-1,-1,-1,-1,-1,-1,-1],"loss_changes":[1.9873241E1,8.982072E0,4.7605944E0,1.8680159E0,3.6022587E0,1.10606E0,3.4131782E0,4.7129464E-1,1.5142943E0,1.9237334E0,2.4882164E0,6.5300655E-1,1.9420195E0,5.151546E-1,3.5081382E0,3.5412788E-1,0E0,1.2519336E0,1.5872692E0,4.0873897E-1,1.9566011E0,2.4197617E0,1.4898145E0,0E0,0E0,3.4945035E-1,6.722231E-1,0E0,0E0,3.610797E0,1.6191416E0,0E0,0E0,1.294441E0,6.5318966E-1,1.9507117E0,1.3932903E0,0E0,0E0,3.6759233E-1,1.116433E0,1.6472859E0,2.4174252E0,6.5126383E-1,0E0,1.2242476E0,2.0557417E-1,0E0,4.9232864E-1,8.141041E-1,2.315603E0,5.151546E-1,7.448514E-1,0E0,0E0,0E0,0E0,0E0,0E0,0E0,0E0,0E0,0E0,0E0,0E0,0E0,0E0,0E0,0E0,0E0,0E0,0E0,0E0,0E0,0E0,0E0,0E0,0E0,0E0,0E0,0E0,0E0,0E0,0E0,0E0],"parents":[2147483647,0,0,1,1,2,2,3,3,4,4,5,5,6,6,7,7,8,8,9,9,10,10,11,11,12,12,13,13,14,14,15,15,17,17,18,18,19,19,20,20,21,21,22,22,25,25,26,26,29,29,30,30,33,33,34,34,35,35,36,36,39,39,40,40,41,41,42,42,43,43,45,45,46,46,48,48,49,49,50,50,51,51,52,52],"right_children":[2,4,6,8,10,12,14,16,18,20,22,24,26,28,30,32,-1,34,36,38,40,42,44,-1,-1,46,48,-1,-1,50,52,-1,-1,54,56,58,60,-1,-1,62,64,66,68,70,-1,72,74,-1,76,78,80,82,84,-1,-1,-1,-1,-1,-1,-1,-1,-1,-1,-1,-1,-1,-1,-1,-1,-1,-1,-1,-1,-1,-1,-1,-1,-1,-1,-1,-1,-1,-1,-1,-1],"split_conditions":[1.504417E0,5.6379396E-1,5.37079E-1,5.501398E-1,7.107485E-1,1.5128085E1,1.3504421E1,5.1980513E-1,2.59739E-1,2.0310378E-1,1.3151088E0,1E0,3.8248795E1,6.003961E-1,1E0,1.5004497E1,-0E0,2.1993394E-1,1.2444427E0,1.5204127E-1,3.5662407E-1,5.48564E-1,1E0,-8.9421876E-2,-0E0,3.482587E-1,3.1406075E-1,-0E0,7.51E-2,1E0,6E0,-0E0,-6.8020836E-2,8E0,1.2339841E0,9.0166146E-1,1.3950845E0,-0E0,-7.521875E-2,7.581944E-1,1.8E1,7.168995E1,2E1,1.4057046E0,6.978125E-2,3.28669E-1,1E0,-2.1874961E-4,1.363571E-1,1.7E1,2E0,7.833671E-1,2.7768624E-1,-2.6352942E-2,1.1056251E-2,-5.7666667E-2,-2.1874961E-4,-9.2088565E-4,2.2935418E-2,-3.0278409E-2,4.442709E-3,6.197917E-2,-0E0,-1.7261906E-2,3.51E-2,1.5122642E-2,4.827174E-2,5.7935417E-2,-2.521875E-2,-7.943749E-3,1.612E-2,-1.678571E-3,-7.521875E-2,-2.9078943E-3,-3.2416668E-2,-0E0,-5.4338235E-2,-4.615774E-2,-1.1477272E-2,-5.021875E-2,3.7510417E-2,7.51E-2,-0E0,3.51E-2,-9.383333E-3],"split_indices":[7,2,2,7,7,5,5,0,0,0,7,18,5,2,11,5,0,0,7,0,0,6,14,0,0,6,2,0,0,10,9,0,0,9,7,7,7,0,0,6,9,5,9,7,0,6,17,0,0,9,9,2,0,0,0,0,0,0,0,0,0,0,0,0,0,0,0,0,0,0,0,0,0,0,0,0,0,0,0,0,0,0,0,0,0],"split_type":[0,0,0,0,0,0,0,0,0,0,0,0,0,0,0,0,0,0,0,0,0,0,0,0,0,0,0,0,0,0,0,0,0,0,0,0,0,0,0,0,0,0,0,0,0,0,0,0,0,0,0,0,0,0,0,0,0,0,0,0,0,0,0,0,0,0,0,0,0,0,0,0,0,0,0,0,0,0,0,0,0,0,0,0,0],"sum_hessian":[6.36E2,4.51E2,1.85E2,2.35E2,2.16E2,9.2E1,9.3E1,8E0,2.27E2,3.4E1,1.82E2,8E0,8.4E1,5E0,8.8E1,6E0,2E0,4.6E1,1.81E2,4E0,3E1,1.36E2,4.6E1,7E0,1E0,2.9E1,5.5E1,1E0,4E0,6.5E1,2.3E1,1E0,5E0,3.5E1,1.1E1,1.37E2,4.4E1,1E0,3E0,6E0,2.4E1,7.4E1,6.2E1,4.3E1,3E0,9E0,2E1,3E0,5.2E1,5.1E1,1.4E1,5E0,1.8E1,1.6E1,1.9E1,8E0,3E0,7.8E1,5.9E1,2.1E1,2.3E1,5E0,1E0,2E1,4E0,5.2E1,2.2E1,5.9E1,3E0,1.9E1,2.4E1,6E0,3E0,1.8E1,2E0,2E0,5E1,4.1E1,1E1,3E0,1.1E1,4E0,1E0,4E0,1.4E1],"tree_param":{"num_deleted":"0","num_feature":"22","num_nodes":"85","size_leaf_vector":"1"}},{"base_weights":[2.3618755E-4,-2.3816457E-1,1.9401003E-1,-1.1820526E-1,-5.353353E-1,5.5897195E-2,4.212282E-1,-3.078176E-1,3.7262945E-3,-6.275053E-1,-2.4173827E-1,1.3588764E-1,-3.0805653E-1,4.77126E-1,-1.598606E-1,-7.76337E-1,-2.4268392E-1,-4.165741E-2,4.7869286E-1,-4.31181E-1,-7.2718835E-1,1.2297714E-1,-3.6964792E-1,1.6518289E-1,-1.453899E-1,-8.386047E-2,-1.626677E-1,3.772028E-1,7.453853E-1,-0E0,-6.0957998E-2,-8.68963E-2,-0E0,-4.7508743E-1,-1.26603E-1,-2.6824364E-1,8.879883E-3,7.819014E-2,-2.1537596E-3,-4.9328163E-1,-0E0,-2.1552408E-1,-7.620303E-1,3.9432503E-2,-0E0,-4.988933E-1,-0E0,-1.1699732E-3,2.0852253E-1,-3.0598074E-2,-3.9477068E-1,-4.4012132E-1,-4.767811E-2,1.3415527E-1,4.2330495E-1,-0E0,7.9691386E-1,-8.959953E-4,-0E0,-2.8750373E-2,-7.783689E-2,-4.2304355E-3,-3.746652E-2,-4.849268E-2,6.3436846E-3,-9.14194E-3,1.6585771E-2,-8.172719E-2,-2.8890926E-2,-4.4504613E-2,-0E0,-4.4367846E-2,-8.676239E-2,-7.032539E-2,-1.606571E-2,-6.627533E-3,2.0620685E-2,3.6878712E-2,1.338658E-2,-3.4655265E-3,-0E0,-0E0,-6.3673936E-2,-5.6369115E-2,-0E0,5.045764E-3,-2.279552E-2,-2.7834538E-3,3.121244E-2,4.570752E-2,-1.8937094E-3,8.2656585E-2,-0E0],"categories":[],"categories_nodes":[],"categories_segments":[],"categories_sizes":[],"default_left":[0,0,0,0,0,0,0,0,0,0,0,0,0,0,0,0,0,0,0,0,0,0,0,0,0,0,0,0,0,0,0,0,0,0,0,0,0,0,0,0,0,0,0,0,0,0,0,0,0,0,0,0,0,0,0,0,0,0,0,0,0,0,0,0,0,0,0,0,0,0,0,0,0,0,0,0,0,0,0,0,0,0,0,0,0,0,0,0,0,0,0,0,0],"id":1,"left_children":[1,3,5,7,9,11,13,15,17,19,21,23,25,27,29,31,33,35,37,39,41,43,45,47,49,-1,51,53,55,57,-1,-1,-1,59,61,63,65,-1,-1,67,-1,69,71,-1,-1,73,-1,75,77,79,81,83,85,87,89,-1,91,-1,-1,-1,-1,-1,-1,-1,-1,-1,-1,-1,-1,-1,-1,-1,-1,-1,-1,-1,-1,-1,-1,-1,-1,-1,-1,-1,-1,-1,-1,-1,-1,-1,-1,-1,-1],"loss_changes":[2.886799E1,9.852919E0,1.0755444E1,4.6786213E0,1.9262524E0,6.313012E0,4.3306065E0,2.1204886E0,2.715001E0,7.4482536E-1,1.0497882E0,1.4927323E0,2.7717538E0,2.7964134E0,8.080982E-1,6.164813E-1,1.795094E0,1.3222876E0,1.761292E0,5.9044313E-1,4.1544914E-1,2.202442E-1,8.0050087E-1,1.1889467E0,4.3204078E-1,0E0,9.511728E-1,8.8471127E-1,1.1935024E0,4.8168455E-4,0E0,0E0,0E0,9.781141E-1,9.6710706E-1,1.5821723E0,1.4868696E0,0E0,0E0,9.7755766E-1,0E0,2.1032962E-1,6.604805E-1,0E0,0E0,6.300919E-1,0E0,4.587189E-1,1.44383E0,2.2407006E-3,4.3709153E-1,4.8087287E-1,4.5385092E-1,4.9838373E-1,1.1576319E0,0E0,7.128334E-1,0E0,0E0,0E0,0E0,0E0,0E0,0E0,0E0,0E0,0E0,0E0,0E0,0E0,0E0,0E0,0E0,0E0,0E0,0E0,0E0,0E0,0E0,0E0,0E0,0E0,0E0,0E0,0E0,0E0,0E0,0E0,0E0,0E0,0E0,0E0,0E0],"parents":[2147483647,0,0,1,1,2,2,3,3,4,4,5,5,6,6,7,7,8,8,9,9,10,10,11,11,12,12,13,13,14,14,15,15,16,16,17,17,18,18,19,19,20,20,21,21,22,22,23,23,24,24,26,26,27,27,28,28,29,29,33,33,34,34,35,35,36,36,39,39,41,41,42,42,45,45,47,47,48,48,49,49,50,50,51,51,52,52,53,53,54,54,56,56],"right_children":[2,4,6,8,10,12,14,16,18,20,22,24,26,28,30,32,34,36,38,40,42,44,46,48,50,-1,52,54,56,58,-1,-1,-1,60,62,64,66,-1,-1,68,-1,70,72,-1,-1,74,-1,76,78,80,82,84,86,88,90,-1,92,-1,-1,-1,-1,-1,-1,-1,-1,-1,-1,-1,-1,-1,-1,-1,-1,-1,-1,-1,-1,-1,-1,-1,-1,-1,-1,-1,-1,-1,-1,-1,-1,-1,-1,-1,-1],"split_conditions":[6.1298954E-1,1.504417E0,7.227672E-1,5.966603E-1,7.315731E-1,1.7553917E0,1.8611947E0,5.9874475E-1,8.7681633E-1,4.194322E1,4E0,1E0,3.482587E-1,8.6478823E-1,1.945874E0,8.180023E-1,4.0857208E-1,2.4523062E1,5.060883E-1,5.340887E-1,2E0,2.4514835E-1,8.630298E-1,7.532504E-1,6.9911003E-1,-8.386047E-2,4.993158E-1,2.1206722E-1,5.845728E-1,7.217956E1,-6.0957998E-2,-8.68963E-2,-0E0,5.060883E-1,5.6042725E-1,1.3361372E0,4.8670533E-1,7.819014E-2,-2.1537596E-3,9E0,-0E0,2.1273938E-1,1.6286138E0,3.9432503E-2,-0E0,4.9257797E-1,-0E0,7.7111846E-1,1.0507544E0,9.343996E1,5.096182E-1,6.568238E-1,7.337789E-1,1.1700331E0,8.6264915E1,-0E0,7.679442E-1,-8.959953E-4,-0E0,-2.8750373E-2,-7.783689E-2,-4.2304355E-3,-3.746652E-2,-4.849268E-2,6.3436846E-3,-9.14194E-3,1.6585771E-2,-8.172719E-2,-2.8890926E-2,-4.4504613E-2,-0E0,-4.4367846E-2,-8.676239E-2,-7.032539E-2,-1.606571E-2,-6.627533E-3,2.0620685E-2,3.6878712E-2,1.338658E-2,-3.4655265E-3,-0E0,-0E0,-6.3673936E-2,-5.6369115E-2,-0E0,5.045764E-3,-2.279552E-2,-2.7834538E-3,3.121244E-2,4.570752E-2,-1.8937094E-3,8.2656585E-2,-0E0],"split_indices":[3,7,1,1,1,7,7,7,1,5,9,19,6,3,7,4,3,5,0,3,9,0,1,7,6,0,1,0,7,5,0,0,0,0,1,7,3,0,0,9,0,0,7,0,0,6,0,0,7,5,4,0,4,7,5,0,0,0,0,0,0,0,0,0,0,0,0,0,0,0,0,0,0,0,0,0,0,0,0,0,0,0,0,0,0,0,0,0,0,0,0,0,0],"split_type":[0,0,0,0,0,0,0,0,0,0,0,0,0,0,0,0,0,0,0,0,0,0,0,0,0,0,0,0,0,0,0,0,0,0,0,0,0,0,0,0,0,0,0,0,0,0,0,0,0,0,0,0,0,0,0,0,0,0,0,0,0,0,0,0,0,0,0,0,0,0,0,0,0,0,0,0,0,0,0,0,0,0,0,0,0,0,0,0,0,0,0,0,0],"sum_hessian":[6.23E2,2.79E2,3.44E2,2E2,7.9E1,2.15E2,1.29E2,7.8E1,1.22E2,5.9E1,2E1,1.77E2,3.8E1,1.18E2,1.1E1,8E0,7E1,1.12E2,1E1,2.2E1,3.7E1,5E0,1.5E1,1.61E2,1.6E1,7E0,3.1E1,8.8E1,3E1,9E0,2E0,7E0,1E0,2.2E1,4.8E1,2E1,9.2E1,6E0,4E0,1.9E1,3E0,3E0,3.4E1,1E0,4E0,1.1E1,4E0,3.3E1,1.28E2,1.2E1,4E0,8E0,2.3E1,1.5E1,7.3E1,2E0,2.8E1,5E0,4E0,1.5E1,7E0,3.7E1,1.1E1,1.2E1,8E0,5.6E1,3.6E1,6E0,1.3E1,1E0,2E0,1E1,2.4E1,6E0,5E0,2.6E1,7E0,3.9E1,8.9E1,1.1E1,1E0,2E0,2E0,6E0,2E0,1.5E1,8E0,8E0,7E0,6.8E1,5E0,2.7E1,1E0],"tree_param":{"num_deleted":"0","num_feature":"22","num_nodes":"93","size_leaf_vector":"1"}},{"base_weights":[-4.1480255E-3,-2.2240843E-1,1.6507137E-1,-1.02239765E-1,-4.975332E-1,-3.599768E-2,2.9181466E-1,-2.1959727E-1,1.7560557E-2,-5.471895E-1,-1.4566314E-1,-1.509378E-1,1.4047337E-1,2.0202038E-1,5.910748E-1,-3.1828326E-1,-5.704743E-2,-9.41991E-2,2.2108334E-1,-2.7328727E-1,-6.236725E-1,-4.254468E-1,-0E0,-1.0530639E-1,-6.300726E-1,5.5604473E-2,5.0682294E-1,3.3348608E-1,1.0751987E-2,6.57724E-1,-0E0,1.8407968E-1,-3.5852066E-1,6.1615933E-2,-1.6645488E-1,-5.543412E-1,-3.428342E-2,3.7364843E-1,1.03092585E-2,1.9029629E-3,-4.2936486E-1,-6.806838E-1,-1.1306724E-1,-5.7056498E-2,-0E0,-1.4010763E-3,1.6454296E-3,-1.8947338E-1,8.007323E-2,-0E0,-7.3287874E-2,-7.4798367E-3,2.2400925E-1,6.4517105E-1,-0E0,9.848552E-2,4.605866E-1,-2.6618952E-2,6.6837E-2,4.0682632E-1,7.662786E-1,4.386889E-2,-0E0,-7.916264E-2,-2.9008418E-2,1.5368213E-2,-2.6611856E-3,-2.9507175E-2,-3.7069588E-3,-7.608315E-2,-0E0,-7.001637E-3,4.316823E-2,-1.5413909E-3,4.781274E-2,-3.6201351E-3,4.039842E-2,-1.8997584E-2,-7.0651434E-2,-7.239985E-2,-0E0,-0E0,-4.4095587E-2,1.9229775E-3,-0E0,-3.6764063E-2,-6.567477E-3,-2.8447714E-3,2.8727133E-2,1.4140585E-3,-4.104769E-2,4.009403E-2,-3.2567028E-3,7.423853E-2,-0E0,-1.0708729E-2,2.6497373E-2,6.8810433E-3,4.9756706E-2,3.2636356E-3,-2.4483014E-2,4.777291E-2,-2.632885E-3,7.972235E-2,1.887002E-2],"categories":[],"categories_nodes":[],"categories_segments":[],"categories_sizes":[],"default_left":[0,0,0,0,0,0,0,0,0,0,0,0,0,0,0,0,0,0,0,0,0,0,0,0,0,0,0,0,0,0,0,0,0,0,0,0,0,0,0,0,0,0,0,0,0,0,0,0,0,0,0,0,0,0,0,0,0,0,0,0,0,0,0,0,0,0,0,0,0,0,0,0,0,0,0,0,0,0,0,0,0,0,0,0,0,0,0,0,0,0,0,0,0,0,0,0,0,0,0,0,0,0,0,0,0],"id":2,"left_children":[1,3,5,7,9,11,13,15,17,19,21,23,25,27,29,31,33,35,37,39,41,43,45,47,49,51,53,55,57,59,-1,61,63,65,67,69,71,73,75,-1,77,79,81,-1,-1,-1,83,85,87,-1,-1,89,91,93,-1,95,97,99,-1,101,103,-1,-1,-1,-1,-1,-1,-1,-1,-1,-1,-1,-1,-1,-1,-1,-1,-1,-1,-1,-1,-1,-1,-1,-1,-1,-1,-1,-1,-1,-1,-1,-1,-1,-1,-1,-1,-1,-1,-1,-1,-1,-1,-1,-1],"loss_changes":[2.3495468E1,9.080218E0,9.159414E0,2.7656555E0,1.3187046E0,2.84167E0,5.713085E0,1.5324078E0,2.239841E0,1.2691307E0,4.6940693E-1,1.7185171E0,1.6256182E0,4.2618265E0,1.9985695E0,1.3164806E0,5.270638E-1,1.6590254E0,1.0832391E0,8.7043834E-1,1.473835E0,2.526133E-1,8.014506E-4,1.2587361E0,4.4372725E-1,5.120186E-1,7.612705E-1,2.9154692E0,1.8268483E0,7.9657173E-1,0E0,2.1546926E-1,1.3516846E0,1.7112991E-1,3.0531144E-1,7.432642E-1,9.431272E-1,8.666179E-1,3.4436405E-1,0E0,5.7228875E-1,1.4696503E0,2.993948E-1,0E0,0E0,0E0,1.4628924E-3,1.145651E0,5.9618795E-1,0E0,0E0,3.4167886E-1,6.400467E-1,5.2798676E-1,0E0,1.3105056E0,8.5084915E-1,9.0846133E-1,0E0,5.4910874E-1,2.871647E-1,0E0,0E0,0E0,0E0,0E0,0E0,0E0,0E0,0E0,0E0,0E0,0E0,0E0,0E0,0E0,0E0,0E0,0E0,0E0,0E0,0E0,0E0,0E0,0E0,0E0,0E0,0E0,0E0,0E0,0E0,0E0,0E0,0E0,0E0,0E0,0E0,0E0,0E0,0E0,0E0,0E0,0E0,0E0,0E0],"parents":[2147483647,0,0,1,1,2,2,3,3,4,4,5,5,6,6,7,7,8,8,9,9,10,10,11,11,12,12,13,13,14,14,15,15,16,16,17,17,18,18,19,19,20,20,21,21,22,22,23,23,24,24,25,25,26,26,27,27,28,28,29,29,31,31,32,32,33,33,34,34,35,35,36,36,37,37,38,38,40,40,41,41,42,42,46,46,47,47,48,48,51,51,52,52,53,53,55,55,56,56,57,57,59,59,60,60],"right_children":[2,4,6,8,10,12,14,16,18,20,22,24,26,28,30,32,34,36,38,40,42,44,46,48,50,52,54,56,58,60,-1,62,64,66,68,70,72,74,76,-1,78,80,82,-1,-1,-1,84,86,88,-1,-1,90,92,94,-1,96,98,100,-1,102,104,-1,-1,-1,-1,-1,-1,-1,-1,-1,-1,-1,-1,-1,-1,-1,-1,-1,-1,-1,-1,-1,-1,-1,-1,-1,-1,-1,-1,-1,-1,-1,-1,-1,-1,-1,-1,-1,-1,-1,-1,-1,-1,-1,-1],"split_conditions":[5.9236E-1,1.495437E0,5.0338686E-1,6.5585375E-1,7.3253554E-1,6.915651E-1,7.922027E-1,4.7538346E-1,6.056708E-1,3.530595E-1,4.0920922E-1,1.8863276E0,9.0266556E-1,1.3151088E0,1.8345311E0,1.4551579E1,9E0,3.391738E-1,5.1698357E-1,6E0,8.658702E-1,6.6027194E-1,1.555905E0,8.3604264E-1,2.467236E-1,5.2E1,1.2756768E0,6.056708E-1,8.437581E-1,5.855996E-1,-0E0,1.19452775E-1,6.098684E-1,9.036796E-1,1.0507544E0,6.031543E-1,1.420769E0,6.966198E-1,8.7388986E-1,1.9029629E-3,4.5509782E-1,8.2332695E-1,6.9860774E-1,-5.7056498E-2,-0E0,-1.4010763E-3,1E0,5.150325E-1,7.164759E-1,-0E0,-7.3287874E-2,1.9102697E0,1.4174836E0,7.0724446E-1,-0E0,5.401674E-1,4.1733634E-1,1.8611947E0,6.6837E-2,1E0,8.959814E-1,4.386889E-2,-0E0,-7.916264E-2,-2.9008418E-2,1.5368213E-2,-2.6611856E-3,-2.9507175E-2,-3.7069588E-3,-7.608315E-2,-0E0,-7.001637E-3,4.316823E-2,-1.5413909E-3,4.781274E-2,-3.6201351E-3,4.039842E-2,-1.8997584E-2,-7.0651434E-2,-7.239985E-2,-0E0,-0E0,-4.4095587E-2,1.9229775E-3,-0E0,-3.6764063E-2,-6.567477E-3,-2.8447714E-3,2.8727133E-2,1.4140585E-3,-4.104769E-2,4.009403E-2,-3.2567028E-3,7.423853E-2,-0E0,-1.0708729E-2,2.6497373E-2,6.8810433E-3,4.9756706E-2,3.2636356E-3,-2.4483014E-2,4.777291E-2,-2.632885E-3,7.972235E-2,1.887002E-2],"split_indices":[3,7,2,1,2,1,1,3,2,3,3,7,3,7,7,5,9,3,4,9,1,1,7,3,0,8,7,2,0,2,0,0,7,7,7,0,7,7,1,0,4,0,0,0,0,0,11,0,4,0,0,7,7,4,0,1,1,7,0,10,1,0,0,0,0,0,0,0,0,0,0,0,0,0,0,0,0,0,0,0,0,0,0,0,0,0,0,0,0,0,0,0,0,0,0,0,0,0,0,0,0,0,0,0,0],"split_type":[0,0,0,0,0,0,0,0,0,0,0,0,0,0,0,0,0,0,0,0,0,0,0,0,0,0,0,0,0,0,0,0,0,0,0,0,0,0,0,0,0,0,0,0,0,0,0,0,0,0,0,0,0,0,0,0,0,0,0,0,0,0,0,0,0,0,0,0,0,0,0,0,0,0,0,0,0,0,0,0,0,0,0,0,0,0,0,0,0,0,0,0,0,0,0,0,0,0,0,0,0,0,0,0,0],"sum_hessian":[6.34E2,2.77E2,3.57E2,1.94E2,8.3E1,1.38E2,2.19E2,9.8E1,9.6E1,7.2E1,1.1E1,8.4E1,5.4E1,1.7E2,4.9E1,6E1,3.8E1,6.2E1,3.4E1,1.7E1,5.5E1,3E0,8E0,7.8E1,6E0,4.5E1,9E0,1E2,7E1,4.4E1,5E0,4E0,5.6E1,1.8E1,2E1,6E0,5.6E1,1.9E1,1.5E1,6E0,1.1E1,4.9E1,6E0,2E0,1E0,3E0,5E0,5.4E1,2.4E1,1E0,5E0,3.3E1,1.2E1,7E0,2E0,3.6E1,6.4E1,6.7E1,3E0,1.5E1,2.9E1,1E0,3E0,6E0,5E1,9E0,9E0,9E0,1.1E1,4E0,2E0,5.3E1,3E0,4E0,1.5E1,1.4E1,1E0,7E0,4E0,4.6E1,3E0,5E0,1E0,3E0,2E0,2.1E1,3.3E1,1.6E1,8E0,3.2E1,1E0,7E0,5E0,6E0,1E0,1.6E1,2E1,6E0,5.8E1,5.3E1,1.4E1,1.3E1,2E0,2.7E1,2E0],"tree_param":{"num_deleted":"0","num_feature":"22","num_nodes":"105","size_leaf_vector":"1"}},{"base_weights":[-4.4505787E-3,-1.9146988E-1,1.7063117E-1,-9.855619E-2,-3.7629113E-1,2.5024617E-1,-1.7801575E-1,-1.3348854E-1,3.3145806E-1,-4.265656E-1,-1.21019036E-1,3.8611837E-2,3.5076684E-1,-8.536465E-2,-5.201073E-1,-3.8836783E-1,-9.1879E-2,6.437534E-1,-4.8806448E-2,-3.1982946E-1,-5.661132E-1,8.008876E-3,-3.5763958E-1,-8.245632E-2,2.0908554E-1,2.6218495E-1,5.400133E-1,-2.5632426E-1,1.1347844E-1,-6.221385E-1,-0E0,-6.1444736E-1,-2.1335359E-1,-4.4425043E-1,-6.661215E-2,-0E0,7.266208E-2,-1.7971736E-1,3.8378496E-2,-4.6843937E-1,-1.0773698E-1,-7.219939E-1,-3.198877E-1,2.3089971E-2,-6.6960807E-4,-4.9260348E-1,-0E0,-4.8685852E-2,-4.5897314E-1,3.7917095E-1,3.2050114E-2,2.9731146E-1,-9.6741006E-2,5.7188493E-1,6.779728E-2,-3.8322452E-1,-1.6276188E-2,3.2887292E-1,-8.523358E-3,-6.866029E-2,-0E0,-0E0,-6.83592E-2,-4.3055564E-2,-7.863976E-3,-1.8649455E-4,-5.9741188E-2,-1.5250961E-2,2.1015408E-3,-4.353422E-3,-4.484081E-2,1.1614924E-3,-5.2591264E-2,-3.1519704E-3,-3.5581525E-2,-7.5849384E-2,-0E0,-4.2083766E-2,6.3171587E-3,2.8881447E-3,-0E0,-6.202764E-2,-0E0,-3.541761E-2,-1.2248091E-3,-6.077006E-2,-0E0,5.0949487E-3,5.580544E-2,3.0182047E-2,-4.8006247E-3,-8.224537E-3,3.3032298E-2,-1.2447336E-3,-3.1213958E-2,-4.3230527E-4,5.9605297E-2,-8.1897415E-3,3.8328804E-2,-0E0,-5.755619E-2,-3.2910511E-3,-0E0,5.1956017E-2,-1.4376229E-3,-0E0,-1.77579E-3],"categories":[],"categories_nodes":[],"categories_segments":[],"categories_sizes":[],"default_left":[0,0,0,0,0,0,0,0,0,0,0,0,0,0,0,0,0,0,0,0,0,0,0,0,0,0,0,0,0,0,0,0,0,0,0,0,0,0,0,0,0,0,0,0,0,0,0,0,0,0,0,0,0,0,0,0,0,0,0,0,0,0,0,0,0,0,0,0,0,0,0,0,0,0,0,0,0,0,0,0,0,0,0,0,0,0,0,0,0,0,0,0,0,0,0,0,0,0,0,0,0,0,0,0,0,0,0],"id":3,"left_children":[1,3,5,7,9,11,13,15,17,19,21,23,25,27,29,31,33,35,37,39,41,43,45,47,49,51,53,55,57,59,-1,61,63,65,67,-1,-1,69,-1,71,73,75,77,79,-1,81,-1,83,85,87,89,91,93,95,97,99,101,103,105,-1,-1,-1,-1,-1,-1,-1,-1,-1,-1,-1,-1,-1,-1,-1,-1,-1,-1,-1,-1,-1,-1,-1,-1,-1,-1,-1,-1,-1,-1,-1,-1,-1,-1,-1,-1,-1,-1,-1,-1,-1,-1,-1,-1,-1,-1,-1,-1],"loss_changes":[2.1383625E1,5.341917E0,9.406055E0,3.208987E0,1.2411537E0,5.7977657E0,1.8918493E0,2.005558E0,1.9909912E0,1.0261917E0,6.179098E-1,1.8874078E0,2.8962631E0,1.7770729E0,7.409675E-1,8.544378E-1,1.4417893E0,4.9405622E-1,5.0161356E-1,1.5309048E0,1.0465994E0,4.6769707E-3,3.1794846E-1,6.007915E-1,1.090949E0,1.6752262E0,7.7017593E-1,8.067527E-1,6.655224E-1,4.566164E-1,0E0,5.199795E-1,4.1264373E-1,6.842785E-1,1.228199E0,0E0,0E0,1.8742268E-1,0E0,8.8524675E-1,3.849319E-1,5.5947876E-1,6.810688E-1,2.1757735E-3,0E0,3.2568038E-1,0E0,5.1558864E-1,2.6527482E-1,1.026221E0,4.718073E-1,1.5304861E0,1.8153682E-1,8.137436E-1,2.976658E-1,1.3317597E0,3.584553E-3,6.4706683E-1,2.3064115E-3,0E0,0E0,0E0,0E0,0E0,0E0,0E0,0E0,0E0,0E0,0E0,0E0,0E0,0E0,0E0,0E0,0E0,0E0,0E0,0E0,0E0,0E0,0E0,0E0,0E0,0E0,0E0,0E0,0E0,0E0,0E0,0E0,0E0,0E0,0E0,0E0,0E0,0E0,0E0,0E0,0E0,0E0,0E0,0E0,0E0,0E0,0E0,0E0],"parents":[2147483647,0,0,1,1,2,2,3,3,4,4,5,5,6,6,7,7,8,8,9,9,10,10,11,11,12,12,13,13,14,14,15,15,16,16,17,17,18,18,19,19,20,20,21,21,22,22,23,23,24,24,25,25,26,26,27,27,28,28,29,29,31,31,32,32,33,33,34,34,37,37,39,39,40,40,41,41,42,42,43,43,45,45,47,47,48,48,49,49,50,50,51,51,52,52,53,53,54,54,55,55,56,56,57,57,58,58],"right_children":[2,4,6,8,10,12,14,16,18,20,22,24,26,28,30,32,34,36,38,40,42,44,46,48,50,52,54,56,58,60,-1,62,64,66,68,-1,-1,70,-1,72,74,76,78,80,-1,82,-1,84,86,88,90,92,94,96,98,100,102,104,106,-1,-1,-1,-1,-1,-1,-1,-1,-1,-1,-1,-1,-1,-1,-1,-1,-1,-1,-1,-1,-1,-1,-1,-1,-1,-1,-1,-1,-1,-1,-1,-1,-1,-1,-1,-1,-1,-1,-1,-1,-1,-1,-1,-1,-1,-1,-1,-1],"split_conditions":[6.3622487E-1,1.4174836E0,1.7482437E0,8.658702E-1,7.709889E-1,5.5383956E-1,1.945874E0,6.116426E-1,5.060883E-1,1.7308646E0,1E0,8.0855054E-1,8.611669E-1,6.220518E-1,1E0,5.9436315E-1,4.224984E-1,5.6715256E-1,6.6302633E-1,1.1E1,5.090739E-1,1.5E1,4.9973848E-1,8.438548E-1,1.1E1,9.286657E1,1.9E1,8.3247274E-1,2.8577015E-1,1.4E1,-0E0,1.1493323E1,2.07902E1,1.9059044E-1,4.582635E-1,-0E0,7.266208E-2,8.886419E-1,3.8378496E-2,4.2980868E-1,1E0,7.361919E-1,1.9132782E0,6.1232954E-1,-6.6960807E-4,5.785359E-1,-0E0,6.906539E-1,2.8303853E-1,4.2021134E-1,4.4832242E-1,2.621413E-1,1E0,1.1294331E1,5.960582E-1,7.3516655E-1,5.195332E-1,6.3878304E-1,4.6338153E-1,-6.866029E-2,-0E0,-0E0,-6.83592E-2,-4.3055564E-2,-7.863976E-3,-1.8649455E-4,-5.9741188E-2,-1.5250961E-2,2.1015408E-3,-4.353422E-3,-4.484081E-2,1.1614924E-3,-5.2591264E-2,-3.1519704E-3,-3.5581525E-2,-7.5849384E-2,-0E0,-4.2083766E-2,6.3171587E-3,2.8881447E-3,-0E0,-6.202764E-2,-0E0,-3.541761E-2,-1.2248091E-3,-6.077006E-2,-0E0,5.0949487E-3,5.580544E-2,3.0182047E-2,-4.8006247E-3,-8.224537E-3,3.3032298E-2,-1.2447336E-3,-3.1213958E-2,-4.3230527E-4,5.9605297E-2,-8.1897415E-3,3.8328804E-2,-0E0,-5.755619E-2,-3.2910511E-3,-0E0,5.1956017E-2,-1.4376229E-3,-0E0,-1.77579E-3],"split_indices":[3,7,7,1,1,1,7,7,0,7,11,3,3,1,16,1,1,7,6,9,0,9,3,6,9,5,9,3,0,9,0,5,5,0,3,0,0,1,0,1,19,1,7,3,0,6,0,7,0,6,1,6,13,5,0,3,1,6,6,0,0,0,0,0,0,0,0,0,0,0,0,0,0,0,0,0,0,0,0,0,0,0,0,0,0,0,0,0,0,0,0,0,0,0,0,0,0,0,0,0,0,0,0,0,0,0,0],"split_type":[0,0,0,0,0,0,0,0,0,0,0,0,0,0,0,0,0,0,0,0,0,0,0,0,0,0,0,0,0,0,0,0,0,0,0,0,0,0,0,0,0,0,0,0,0,0,0,0,0,0,0,0,0,0,0,0,0,0,0,0,0,0,0,0,0,0,0,0,0,0,0,0,0,0,0,0,0,0,0,0,0,0,0,0,0,0,0,0,0,0,0,0,0,0,0,0,0,0,0,0,0,0,0,0,0,0,0],"sum_hessian":[6.51E2,3.15E2,3.36E2,2.11E2,1.04E2,2.74E2,6.2E1,1.96E2,1.5E1,8.6E1,1.8E1,8.9E1,1.85E2,5E1,1.2E1,2.6E1,1.7E2,8E0,7E0,5.1E1,3.5E1,1.2E1,6E0,5.2E1,3.7E1,1.28E2,5.7E1,2.7E1,2.3E1,1E1,2E0,1E1,1.6E1,1E1,1.6E2,1E0,7E0,6E0,1E0,2.9E1,2.2E1,2E1,1.5E1,9E0,3E0,4E0,2E0,4.9E1,3E0,1.8E1,1.9E1,1.17E2,1.1E1,5.3E1,4E0,1.7E1,1E1,8E0,1.5E1,9E0,1E0,1E0,9E0,5E0,1.1E1,3E0,7E0,8.1E1,7.9E1,5E0,1E0,3E0,2.6E1,1.8E1,4E0,1.9E1,1E0,1.2E1,3E0,8E0,1E0,3E0,1E0,4E0,4.5E1,2E0,1E0,7E0,1.1E1,4E0,1.5E1,9E0,1.08E2,9E0,2E0,2E0,5.1E1,3E0,1E0,6E0,1.1E1,5E0,5E0,5E0,3E0,5E0,1E1],"tree_param":{"num_deleted":"0","num_feature":"22","num_nodes":"107","size_leaf_vector":"1"}},{"base_weights":[-0E0,-2.5296742E-1,9.857672E-2,-3.8754484E-1,-7.47413E-2,1.7465422E-1,-1.5691544E-1,-2.0955129E-1,-4.9281782E-1,-1.0911209E-1,4.357689E-1,6.6738024E-2,3.439223E-1,-3.9815274E-1,-9.502128E-2,-2.0762263E-2,-3.9230222E-1,-5.9844214E-1,-2.4831001E-1,-1.7564002E-1,1.8616246E-1,5.3828865E-2,-0E0,-4.957052E-2,2.5911793E-1,1.1577742E-1,4.2845955E-1,-1.933902E-2,-5.417223E-1,-1.4205115E-1,3.687764E-1,-3.169055E-2,4.8901746E-3,-8.5477725E-2,-5.1055E-1,-1.8899141E-1,-6.83774E-1,4.9012672E-2,-3.7717327E-1,-1.2902585E-1,-5.7253474E-1,4.001252E-1,-1.491421E-1,-3.7239358E-1,-3.1178672E-2,-1.3084814E-2,3.8526452E-1,4.091609E-2,5.0402874E-1,3.1068173E-1,6.0214585E-1,-4.2651035E-3,-0E0,-6.6719794E-1,-4.8646536E-3,-3.7787998E-1,-7.457272E-2,5.139227E-1,-1.1108287E-3,1.8665262E-3,-7.51438E-5,-3.169055E-2,-0E0,-5.9773553E-2,-0E0,-4.41786E-2,2.1244837E-2,-7.036085E-2,-0E0,5.739798E-3,-0E0,2.0851977E-3,-4.4770423E-2,8.778843E-3,-1.9735252E-2,-6.864651E-2,-0E0,-0E0,5.126164E-2,-0E0,-4.6556026E-2,-0E0,-6.64164E-2,-1.286412E-2,3.333643E-3,-1.6363729E-2,1.3125941E-2,4.871694E-2,1.5055113E-2,-2.1466939E-3,4.2703103E-2,-7.7414623E-4,6.2793106E-2,1.7115517E-2,4.815067E-2,-3.23732E-3,6.223273E-2,-0E0,-7.319071E-2,-0E0,-3.3890177E-3,7.610167E-3,-4.8774045E-2,-2.61272E-3,-4.4411875E-2,-0E0,6.315982E-2],"categories":[],"categories_nodes":[],"categories_segments":[],"categories_sizes":[],"default_left":[0,0,0,0,0,0,0,0,0,0,0,0,0,0,0,0,0,0,0,0,0,0,0,0,0,0,0,0,0,0,0,0,0,0,0,0,0,0,0,0,0,0,0,0,0,0,0,0,0,0,0,0,0,0,0,0,0,0,0,0,0,0,0,0,0,0,0,0,0,0,0,0,0,0,0,0,0,0,0,0,0,0,0,0,0,0,0,0,0,0,0,0,0,0,0,0,0,0,0,0,0,0,0,0,0,0,0],"id":4,"left_children":[1,3,5,7,9,11,13,15,17,19,21,23,25,27,29,31,33,35,37,39,41,-1,-1,43,45,47,49,51,53,55,57,-1,59,61,63,65,67,69,71,73,75,77,79,81,83,85,87,89,91,93,95,-1,-1,97,99,101,103,105,-1,-1,-1,-1,-1,-1,-1,-1,-1,-1,-1,-1,-1,-1,-1,-1,-1,-1,-1,-1,-1,-1,-1,-1,-1,-1,-1,-1,-1,-1,-1,-1,-1,-1,-1,-1,-1,-1,-1,-1,-1,-1,-1,-1,-1,-1,-1,-1,-1],"loss_changes":[1.5998361E1,4.2421436E0,8.989733E0,1.7377605E0,1.4010665E0,6.4389496E0,1.4955552E0,1.3306034E0,1.3937616E0,1.5049458E0,2.0954603E-1,4.9340177E0,2.557541E0,1.0755258E0,1.9055746E0,1.9228399E-1,6.223829E-1,1.285881E0,8.5589576E-1,1.0030292E0,1.0891714E0,0E0,0E0,7.614439E-1,2.8922668E0,1.058418E0,1.7672806E0,4.6584588E-3,9.399867E-1,1.1837306E0,4.9710107E-1,0E0,3.3596822E-3,1.4971313E-1,6.381948E-1,1.0301268E0,4.6806526E-1,2.9514711E-3,4.731171E-1,8.7269115E-1,3.8939536E-1,3.9852726E-1,3.0003253E-1,7.937162E-1,8.3752143E-1,6.1146396E-1,1.2262354E0,8.686822E-1,4.4733715E-1,1.3300676E0,5.78557E-1,0E0,0E0,5.507302E-1,3.3509724E-3,9.2615056E-1,1.0692514E0,4.0988266E-1,0E0,0E0,0E0,0E0,0E0,0E0,0E0,0E0,0E0,0E0,0E0,0E0,0E0,0E0,0E0,0E0,0E0,0E0,0E0,0E0,0E0,0E0,0E0,0E0,0E0,0E0,0E0,0E0,0E0,0E0,0E0,0E0,0E0,0E0,0E0,0E0,0E0,0E0,0E0,0E0,0E0,0E0,0E0,0E0,0E0,0E0,0E0,0E0,0E0],"parents":[2147483647,0,0,1,1,2,2,3,3,4,4,5,5,6,6,7,7,8,8,9,9,10,10,11,11,12,12,13,13,14,14,15,15,16,16,17,17,18,18,19,19,20,20,23,23,24,24,25,25,26,26,27,27,28,28,29,29,30,30,32,32,33,33,34,34,35,35,36,36,37,37,38,38,39,39,40,40,41,41,42,42,43,43,44,44,45,45,46,46,47,47,48,48,49,49,50,50,53,53,54,54,55,55,56,56,57,57],"right_children":[2,4,6,8,10,12,14,16,18,20,22,24,26,28,30,32,34,36,38,40,42,-1,-1,44,46,48,50,52,54,56,58,-1,60,62,64,66,68,70,72,74,76,78,80,82,84,86,88,90,92,94,96,-1,-1,98,100,102,104,106,-1,-1,-1,-1,-1,-1,-1,-1,-1,-1,-1,-1,-1,-1,-1,-1,-1,-1,-1,-1,-1,-1,-1,-1,-1,-1,-1,-1,-1,-1,-1,-1,-1,-1,-1,-1,-1,-1,-1,-1,-1,-1,-1,-1,-1,-1,-1,-1,-1],"split_conditions":[4.7862393E-1,5.6379396E-1,1.591369E0,1.16456E0,8.630298E-1,7.2286254E-1,4.900793E-1,4.0938586E-1,1.6568372E0,1E0,6.77802E-1,6.0484093E-1,4.3710643E-1,1.7444657E0,8.5094523E-1,3.043095E-1,4.220814E-1,3.3263838E-1,1.7308646E0,8.1616545E-1,1E0,5.3828865E-2,-0E0,5.0235003E-1,6.7089635E-1,1E0,7.92855E-1,1.7024639E0,5.4E1,5.851E-1,1.7941562E0,-3.169055E-2,6.0954976E-1,4.6728814E-1,7.417576E-1,3.1950322E-1,2E1,7.824076E-1,1.7096202E-1,3.280017E-1,8.774257E-1,5.243024E-1,4.4950575E-1,4.920391E-1,4.4064227E-1,4.5680463E-1,1.4E1,9.0266556E-1,3.1092337E-1,1.2E1,5.501398E-1,-4.2651035E-3,-0E0,1.0972358E-1,7.081823E-1,3E0,1.945874E0,3.476667E-1,-1.1108287E-3,1.8665262E-3,-7.51438E-5,-3.169055E-2,-0E0,-5.9773553E-2,-0E0,-4.41786E-2,2.1244837E-2,-7.036085E-2,-0E0,5.739798E-3,-0E0,2.0851977E-3,-4.4770423E-2,8.778843E-3,-1.9735252E-2,-6.864651E-2,-0E0,-0E0,5.126164E-2,-0E0,-4.6556026E-2,-0E0,-6.64164E-2,-1.286412E-2,3.333643E-3,-1.6363729E-2,1.3125941E-2,4.871694E-2,1.5055113E-2,-2.1466939E-3,4.2703103E-2,-7.7414623E-4,6.2793106E-2,1.7115517E-2,4.815067E-2,-3.23732E-3,6.223273E-2,-0E0,-7.319071E-2,-0E0,-3.3890177E-3,7.610167E-3,-4.8774045E-2,-2.61272E-3,-4.4411875E-2,-0E0,6.315982E-2],"split_indices":[3,2,7,7,1,1,1,2,7,10,0,2,2,7,6,2,6,2,7,0,11,0,0,3,3,16,3,7,8,3,7,0,1,1,0,2,9,0,0,4,0,1,3,3,2,0,9,3,2,9,7,0,0,0,0,8,7,4,0,0,0,0,0,0,0,0,0,0,0,0,0,0,0,0,0,0,0,0,0,0,0,0,0,0,0,0,0,0,0,0,0,0,0,0,0,0,0,0,0,0,0,0,0,0,0,0,0],"split_type":[0,0,0,0,0,0,0,0,0,0,0,0,0,0,0,0,0,0,0,0,0,0,0,0,0,0,0,0,0,0,0,0,0,0,0,0,0,0,0,0,0,0,0,0,0,0,0,0,0,0,0,0,0,0,0,0,0,0,0,0,0,0,0,0,0,0,0,0,0,0,0,0,0,0,0,0,0,0,0,0,0,0,0,0,0,0,0,0,0,0,0,0,0,0,0,0,0,0,0,0,0,0,0,0,0,0,0],"sum_hessian":[6.39E2,1.79E2,4.6E2,1.01E2,7.8E1,3.55E2,1.05E2,3.9E1,6.2E1,7.4E1,4E0,2.18E2,1.37E2,2E1,8.5E1,2E1,1.9E1,4.2E1,2E1,6.1E1,1.3E1,3E0,1E0,1.36E2,8.2E1,3.8E1,9.9E1,6E0,1.4E1,7.8E1,7E0,1E0,1.9E1,6E0,1.3E1,8E0,3.4E1,6E0,1.4E1,5.6E1,5E0,8E0,5E0,6E0,1.3E2,2.6E1,5.6E1,3.3E1,5E0,6.1E1,3.8E1,3E0,3E0,1.1E1,3E0,1.6E1,6.2E1,5E0,2E0,1E1,9E0,1E0,5E0,1.1E1,2E0,5E0,3E0,3.3E1,1E0,5E0,1E0,2E0,1.2E1,1.3E1,4.3E1,4E0,1E0,2E0,6E0,4E0,1E0,3E0,3E0,5.2E1,7.8E1,1.3E1,1.3E1,3.8E1,1.8E1,2.9E1,4E0,1E0,4E0,3.5E1,2.6E1,1E0,3.7E1,1E0,1E1,1E0,2E0,3E0,1.3E1,5.6E1,6E0,1E0,4E0],"tree_param":{"num_deleted":"0","num_feature":"22","num_nodes":"107","size_leaf_vector":"1"}},{"base_weights":[3.6552316E-3,-1.6265494E-1,1.320194E-1,-8.208659E-2,-3.351965E-1,2.1297263E-1,-6.285918E-2,-1.7540099E-1,3.569122E-2,-1.569682E-1,-3.961133E-1,1.1347253E-1,3.694681E-1,-3.593387E-1,1.944742E-2,-4.4536045E-1,-1.3677983E-1,-9.51653E-2,1.1537438E-1,-4.4772348E-1,9.631977E-2,-1.7096342E-1,-4.5702085E-1,7.8941576E-2,3.7977898E-1,1.7365016E-1,4.737111E-1,-0E0,-4.124415E-1,-1.5255624E-2,4.2756116E-1,-6.44317E-2,-0E0,-1.9507201E-1,-1.275044E-3,7.4123636E-2,-1.8772447E-1,1.9343585E-2,3.880829E-1,-6.1159868E-2,-7.597847E-2,1.0277487E-1,-0E0,-3.1722337E-1,4.8117E-2,-5.092943E-1,-1.4537877E-1,1.2472645E-1,-1.418149E-1,2.2010954E-1,6.4576626E-2,8.842804E-2,5.1196957E-1,-6.1702766E-3,5.0222635E-1,-4.989809E-1,-1.5719216E-2,-9.081618E-2,1.5061024E-1,-0E0,6.1570346E-2,1.0086409E-2,-2.4361929E-2,4.088089E-2,-3.1904806E-3,-7.5102444E-3,4.163514E-2,-4.134151E-3,-3.8346194E-2,-2.6129682E-3,3.8107168E-2,-4.0772567E-3,5.17841E-2,-2.8604064E-2,2.304723E-3,1.08556915E-2,-0E0,-5.136137E-2,8.076555E-3,-0E0,6.058015E-3,-2.4219742E-2,-5.6993183E-2,-3.7182502E-2,1.314852E-3,1.8418817E-2,-3.6389295E-3,-1.8264016E-2,3.6899585E-2,4.8627343E-2,3.667298E-3,3.282745E-2,-2.0067086E-3,6.170811E-2,-9.3498937E-4,5.2481484E-2,-8.361961E-3,-5.551201E-2,-1.8624471E-3,-4.0202E-3,-0E0,-7.505582E-3,-4.288178E-2,4.9477875E-2,3.482917E-3,-0E0,-5.441617E-4],"categories":[],"categories_nodes":[],"categories_segments":[],"categories_sizes":[],"default_left":[0,0,0,0,0,0,0,0,0,0,0,0,0,0,0,0,0,0,0,0,0,0,0,0,0,0,0,0,0,0,0,0,0,0,0,0,0,0,0,0,0,0,0,0,0,0,0,0,0,0,0,0,0,0,0,0,0,0,0,0,0,0,0,0,0,0,0,0,0,0,0,0,0,0,0,0,0,0,0,0,0,0,0,0,0,0,0,0,0,0,0,0,0,0,0,0,0,0,0,0,0,0,0,0,0,0,0],"id":5,"left_children":[1,3,5,7,9,11,13,15,17,19,21,23,25,27,29,31,33,35,37,39,41,43,45,47,49,51,53,-1,55,57,59,-1,-1,61,63,65,67,69,71,-1,73,75,-1,77,79,81,83,85,87,89,-1,91,93,-1,95,97,99,101,103,105,-1,-1,-1,-1,-1,-1,-1,-1,-1,-1,-1,-1,-1,-1,-1,-1,-1,-1,-1,-1,-1,-1,-1,-1,-1,-1,-1,-1,-1,-1,-1,-1,-1,-1,-1,-1,-1,-1,-1,-1,-1,-1,-1,-1,-1,-1,-1],"loss_changes":[1.3980176E1,3.8926525E0,5.8655367E0,2.1743429E0,8.596535E-1,3.9894657E0,2.7008193E0,1.0277462E0,9.2015487E-1,1.9193854E0,7.641468E-1,1.4138694E0,1.9146824E0,4.7328472E-1,1.2657531E0,1.1578019E0,7.542058E-1,5.4235995E-1,1.3921132E0,6.1581135E-1,7.4297786E-3,5.548576E-1,6.9131374E-1,1.481539E0,5.357342E-1,9.614829E-1,1.0674248E0,0E0,6.6166043E-1,1.0103317E0,6.157938E-1,0E0,0E0,1.0157962E0,3.6473653E-1,6.782256E-1,5.7202464E-1,7.3630774E-1,8.478849E-1,0E0,1.3689956E-1,4.1004717E-3,0E0,8.66379E-1,5.8130063E-3,4.771824E-1,3.6383778E-1,1.1806891E0,5.7010764E-1,5.6458676E-1,0E0,8.440957E-1,4.5011938E-1,0E0,9.084759E-1,3.9072323E-1,5.2293334E-3,2.1574071E-1,9.260114E-1,5.9222395E-5,0E0,0E0,0E0,0E0,0E0,0E0,0E0,0E0,0E0,0E0,0E0,0E0,0E0,0E0,0E0,0E0,0E0,0E0,0E0,0E0,0E0,0E0,0E0,0E0,0E0,0E0,0E0,0E0,0E0,0E0,0E0,0E0,0E0,0E0,0E0,0E0,0E0,0E0,0E0,0E0,0E0,0E0,0E0,0E0,0E0,0E0,0E0],"parents":[2147483647,0,0,1,1,2,2,3,3,4,4,5,5,6,6,7,7,8,8,9,9,10,10,11,11,12,12,13,13,14,14,15,15,16,16,17,17,18,18,19,19,20,20,21,21,22,22,23,23,24,24,25,25,26,26,28,28,29,29,30,30,33,33,34,34,35,35,36,36,37,37,38,38,40,40,41,41,43,43,44,44,45,45,46,46,47,47,48,48,49,49,51,51,52,52,54,54,55,55,56,56,57,57,58,58,59,59],"right_children":[2,4,6,8,10,12,14,16,18,20,22,24,26,28,30,32,34,36,38,40,42,44,46,48,50,52,54,-1,56,58,60,-1,-1,62,64,66,68,70,72,-1,74,76,-1,78,80,82,84,86,88,90,-1,92,94,-1,96,98,100,102,104,106,-1,-1,-1,-1,-1,-1,-1,-1,-1,-1,-1,-1,-1,-1,-1,-1,-1,-1,-1,-1,-1,-1,-1,-1,-1,-1,-1,-1,-1,-1,-1,-1,-1,-1,-1,-1,-1,-1,-1,-1,-1,-1,-1,-1,-1,-1,-1],"split_conditions":[5.9558094E-1,1.5035803E0,1.533715E0,6.721287E-1,3.336188E1,7.3443824E-1,4.993158E-1,4.3121567E-1,4.1793492E-1,1.912356E1,5E0,8.0197763E-1,7.580425E-1,1.3E1,1E0,6.2118065E-1,7.435902E1,7.05054E-1,1.6E1,4.7E1,6.9400024E-1,6.0757285E-1,8.0943465E-1,1E0,7.7932715E-1,6.6499376E-1,6E0,-0E0,5.4E1,4.7E1,5.1655054E-1,-6.44317E-2,-0E0,1.8286028E1,7.468657E1,1E0,3.6446577E-1,8.788158E-1,2.3E1,-6.1159868E-2,1.0619017E1,1.3E1,-0E0,6.377084E-1,1.555905E0,3.5001957E-1,1.2E1,1.4E1,6.5167254E-1,4.6022367E-1,6.4576626E-2,7.8232545E-1,8.437581E-1,-6.1702766E-3,6.1E1,9.0652364E-1,4.1898247E1,9.653431E1,2.8577015E-1,6.968359E-1,6.1570346E-2,1.0086409E-2,-2.4361929E-2,4.088089E-2,-3.1904806E-3,-7.5102444E-3,4.163514E-2,-4.134151E-3,-3.8346194E-2,-2.6129682E-3,3.8107168E-2,-4.0772567E-3,5.17841E-2,-2.8604064E-2,2.304723E-3,1.08556915E-2,-0E0,-5.136137E-2,8.076555E-3,-0E0,6.058015E-3,-2.4219742E-2,-5.6993183E-2,-3.7182502E-2,1.314852E-3,1.8418817E-2,-3.6389295E-3,-1.8264016E-2,3.6899585E-2,4.8627343E-2,3.667298E-3,3.282745E-2,-2.0067086E-3,6.170811E-2,-9.3498937E-4,5.2481484E-2,-8.361961E-3,-5.551201E-2,-1.8624471E-3,-4.0202E-3,-0E0,-7.505582E-3,-4.288178E-2,4.9477875E-2,3.482917E-3,-0E0,-5.441617E-4],"split_indices":[3,7,7,1,5,1,1,1,3,5,9,0,3,8,18,6,5,1,9,8,1,1,1,10,6,0,8,0,8,8,6,0,0,5,5,10,3,1,8,0,5,9,0,0,7,3,9,9,1,1,0,1,0,0,8,3,5,5,0,0,0,0,0,0,0,0,0,0,0,0,0,0,0,0,0,0,0,0,0,0,0,0,0,0,0,0,0,0,0,0,0,0,0,0,0,0,0,0,0,0,0,0,0,0,0,0,0],"split_type":[0,0,0,0,0,0,0,0,0,0,0,0,0,0,0,0,0,0,0,0,0,0,0,0,0,0,0,0,0,0,0,0,0,0,0,0,0,0,0,0,0,0,0,0,0,0,0,0,0,0,0,0,0,0,0,0,0,0,0,0,0,0,0,0,0,0,0,0,0,0,0,0,0,0,0,0,0,0,0,0,0,0,0,0,0,0,0,0,0,0,0,0,0,0,0,0,0,0,0,0,0,0,0,0,0,0,0],"sum_hessian":[6.53E2,2.84E2,3.69E2,1.95E2,8.9E1,2.61E2,1.08E2,1.09E2,8.6E1,2.4E1,6.5E1,1.61E2,1E2,2.3E1,8.5E1,1.2E1,9.7E1,3.2E1,5.4E1,1.1E1,1.3E1,1.5E1,5E1,1.44E2,1.7E1,3.6E1,6.4E1,3E0,2E1,7.9E1,6E0,8E0,4E0,6.7E1,3E1,1.1E1,2.1E1,4.1E1,1.3E1,7E0,4E0,1.2E1,1E0,9E0,6E0,4.2E1,8E0,1.2E2,2.4E1,1.2E1,5E0,3E1,6E0,3E0,6.1E1,1.6E1,4E0,5.5E1,2.4E1,2E0,4E0,9E0,5.8E1,1E0,2.9E1,8E0,3E0,1.3E1,8E0,3.7E1,4E0,3E0,1E1,1E0,3E0,1.1E1,1E0,6E0,3E0,1E0,5E0,9E0,3.3E1,3E0,5E0,8.8E1,3.2E1,2.3E1,1E0,4E0,8E0,9E0,2.1E1,5E0,1E0,5.9E1,2E0,1.4E1,2E0,3E0,1E0,5.4E1,1E0,5E0,1.9E1,1E0,1E0],"tree_param":{"num_deleted":"0","num_feature":"22","num_nodes":"107","size_leaf_vector":"1"}},{"base_weights":[-6.3135168E-3,-1.3730437E-1,1.3372965E-1,-1.929491E-1,5.3127043E-2,-3.5521996E-3,3.1042084E-1,-1.5591927E-1,-4.441605E-1,-1.1238251E-1,1.6818635E-1,3.9645366E-2,-3.6330315E-1,4.1023245E-1,7.726106E-2,-2.435946E-1,-6.277888E-2,9.173905E-3,-4.862784E-1,2.0287144E-1,-1.8465717E-1,2.4243489E-2,3.1302464E-1,-4.8580147E-2,2.189537E-1,-8.469644E-2,-4.7768342E-1,1.7449985E-1,4.702345E-1,3.5724467E-1,-6.8934024E-3,-3.5907525E-1,-1.13729715E-1,-6.526915E-2,-3.3691574E-2,7.344386E-3,-5.32453E-1,-2.0798182E-2,4.6680715E-2,-2.683292E-1,-3.7074454E-2,1.5222979E-1,-1.6016032E-1,2.4884898E-2,4.391642E-1,-2.1316445E-1,-1.1823274E-3,1.136924E-1,4.6435207E-1,-3.2966416E-2,-0E0,-5.212419E-1,-0E0,5.11647E-1,-0E0,-7.318787E-3,4.9563527E-1,4.4449955E-1,-0E0,-5.2542314E-2,3.121968E-1,-6.0414065E-2,-1.986653E-2,-2.2008605E-3,-3.8017817E-2,7.798172E-3,-1.1150303E-2,1.5428615E-3,-5.570201E-2,-6.2675434E-3,-0E0,-2.172355E-3,-4.4660877E-2,-0E0,-7.092154E-3,-3.0730253E-3,2.5678283E-2,-0E0,-2.6995922E-2,-3.6910845E-3,2.7872754E-2,7.9680013E-4,5.8614757E-2,-2.1463432E-3,-3.7876844E-2,1.6271107E-2,-4.424211E-3,3.1246243E-2,-2.5177714E-3,5.391304E-2,-0E0,-6.2093265E-2,-1.4162721E-2,6.121669E-2,-0E0,-4.5718458E-3,3.6151316E-2,2.2373153E-2,5.4545075E-2,5.8004927E-2,-0E0,1.06778415E-2,-1.425416E-2,4.2095464E-2,-0E0],"categories":[],"categories_nodes":[],"categories_segments":[],"categories_sizes":[],"default_left":[0,0,0,0,0,0,0,0,0,0,0,0,0,0,0,0,0,0,0,0,0,0,0,0,0,0,0,0,0,0,0,0,0,0,0,0,0,0,0,0,0,0,0,0,0,0,0,0,0,0,0,0,0,0,0,0,0,0,0,0,0,0,0,0,0,0,0,0,0,0,0,0,0,0,0,0,0,0,0,0,0,0,0,0,0,0,0,0,0,0,0,0,0,0,0,0,0,0,0,0,0,0,0,0,0],"id":6,"left_children":[1,3,5,7,9,11,13,15,17,19,21,23,25,27,29,31,33,-1,35,37,39,41,43,45,47,49,51,53,55,57,59,61,63,-1,65,-1,67,69,-1,71,73,75,77,79,81,83,85,87,89,-1,-1,91,-1,93,95,-1,97,99,-1,101,103,-1,-1,-1,-1,-1,-1,-1,-1,-1,-1,-1,-1,-1,-1,-1,-1,-1,-1,-1,-1,-1,-1,-1,-1,-1,-1,-1,-1,-1,-1,-1,-1,-1,-1,-1,-1,-1,-1,-1,-1,-1,-1,-1,-1],"loss_changes":[1.1704084E1,3.5210795E0,7.50279E0,2.2521315E0,1.4527377E0,2.7507923E0,3.061283E0,1.7914457E0,8.063359E-1,7.4197125E-1,8.968642E-1,2.495527E0,5.087793E-1,1.1830482E0,1.0270962E0,1.6365232E0,1.814017E0,0E0,8.603549E-1,4.0851605E-1,2.805738E-1,5.90016E-1,7.4227476E-1,7.974117E-1,1.2326119E0,1.671425E-1,2.9395843E-1,1.1930244E0,1.099966E0,3.0440128E-1,4.7112006E-1,2.1583529E0,1.3199953E0,0E0,9.4181967E-1,0E0,4.3962812E-1,6.1261607E-3,0E0,6.469009E-1,2.008939E-2,3.174317E-1,1.8075463E-1,1.599609E-1,8.865979E-1,6.820154E-1,5.811005E-1,1.0855178E0,5.442581E-1,0E0,0E0,2.89932E-1,0E0,4.160111E-1,2.90646E-1,0E0,7.62743E-1,4.3810427E-1,0E0,4.4895923E-1,1.4174104E-1,0E0,0E0,0E0,0E0,0E0,0E0,0E0,0E0,0E0,0E0,0E0,0E0,0E0,0E0,0E0,0E0,0E0,0E0,0E0,0E0,0E0,0E0,0E0,0E0,0E0,0E0,0E0,0E0,0E0,0E0,0E0,0E0,0E0,0E0,0E0,0E0,0E0,0E0,0E0,0E0,0E0,0E0,0E0,0E0],"parents":[2147483647,0,0,1,1,2,2,3,3,4,4,5,5,6,6,7,7,8,8,9,9,10,10,11,11,12,12,13,13,14,14,15,15,16,16,18,18,19,19,20,20,21,21,22,22,23,23,24,24,25,25,26,26,27,27,28,28,29,29,30,30,31,31,32,32,34,34,36,36,37,37,39,39,40,40,41,41,42,42,43,43,44,44,45,45,46,46,47,47,48,48,51,51,53,53,54,54,56,56,57,57,59,59,60,60],"right_children":[2,4,6,8,10,12,14,16,18,20,22,24,26,28,30,32,34,-1,36,38,40,42,44,46,48,50,52,54,56,58,60,62,64,-1,66,-1,68,70,-1,72,74,76,78,80,82,84,86,88,90,-1,-1,92,-1,94,96,-1,98,100,-1,102,104,-1,-1,-1,-1,-1,-1,-1,-1,-1,-1,-1,-1,-1,-1,-1,-1,-1,-1,-1,-1,-1,-1,-1,-1,-1,-1,-1,-1,-1,-1,-1,-1,-1,-1,-1,-1,-1,-1,-1,-1,-1,-1,-1,-1],"split_conditions":[6.7089635E-1,7.709889E-1,5.908608E-1,1.8345311E0,2.3E1,1.8962493E0,1.5035803E0,4.582635E-1,2.381565E-1,4E0,5.085821E-1,7.315731E-1,4.227863E-1,4.8214343E-1,3.275723E1,5.4600084E-1,5.501398E-1,9.173905E-3,3.2023716E-1,5.209187E-1,5.6911004E-1,4.4168624E-1,3.4023145E-1,3.7397918E-1,8.641469E-1,7.1542794E-1,9.303837E-1,8.9745057E-1,5.1951534E-1,7.699622E-1,8.449567E-1,2.8E1,7.580298E-1,-6.526915E-2,4.6492973E-1,7.344386E-3,1.1163573E-1,3.7285307E-1,4.6680715E-2,4.5219138E-1,3.7890118E-1,2.7183393E1,8.2557535E-1,8.8291615E-1,3.951431E-1,3.4270152E-1,1.1E1,8.1376183E-1,8.101633E-1,-3.2966416E-2,-0E0,6.955468E1,-0E0,9.259025E-1,8.124218E-1,-7.318787E-3,4E0,1E1,-0E0,1.8E1,6.8437356E-1,-6.0414065E-2,-1.986653E-2,-2.2008605E-3,-3.8017817E-2,7.798172E-3,-1.1150303E-2,1.5428615E-3,-5.570201E-2,-6.2675434E-3,-0E0,-2.172355E-3,-4.4660877E-2,-0E0,-7.092154E-3,-3.0730253E-3,2.5678283E-2,-0E0,-2.6995922E-2,-3.6910845E-3,2.7872754E-2,7.9680013E-4,5.8614757E-2,-2.1463432E-3,-3.7876844E-2,1.6271107E-2,-4.424211E-3,3.1246243E-2,-2.5177714E-3,5.391304E-2,-0E0,-6.2093265E-2,-1.4162721E-2,6.121669E-2,-0E0,-4.5718458E-3,3.6151316E-2,2.2373153E-2,5.4545075E-2,5.8004927E-2,-0E0,1.06778415E-2,-1.425416E-2,4.2095464E-2,-0E0],"split_indices":[3,1,2,7,8,7,7,3,6,8,2,1,0,1,5,2,7,0,3,3,2,0,4,2,3,3,3,7,7,2,1,8,0,0,4,0,0,0,0,4,3,5,1,1,3,2,8,1,0,0,0,5,0,3,0,0,9,9,0,8,2,0,0,0,0,0,0,0,0,0,0,0,0,0,0,0,0,0,0,0,0,0,0,0,0,0,0,0,0,0,0,0,0,0,0,0,0,0,0,0,0,0,0,0,0],"split_type":[0,0,0,0,0,0,0,0,0,0,0,0,0,0,0,0,0,0,0,0,0,0,0,0,0,0,0,0,0,0,0,0,0,0,0,0,0,0,0,0,0,0,0,0,0,0,0,0,0,0,0,0,0,0,0,0,0,0,0,0,0,0,0,0,0,0,0,0,0,0,0,0,0,0,0,0,0,0,0,0,0,0,0,0,0,0,0,0,0,0,0,0,0,0,0,0,0,0,0,0,0,0,0,0,0],"sum_hessian":[6.36E2,3.29E2,3.07E2,2.55E2,7.4E1,1.73E2,1.34E2,2.24E2,3.1E1,3E1,4.4E1,1.55E2,1.8E1,9.3E1,4.1E1,1.14E2,1.1E2,2E0,2.9E1,5E0,2.5E1,2.3E1,2.1E1,1.04E2,5.1E1,6E0,1.2E1,2E1,7.3E1,9E0,3.2E1,5.9E1,5.5E1,4E0,1.06E2,2E0,2.7E1,3E0,2E0,1.5E1,1E1,1.4E1,9E0,7E0,1.4E1,2.2E1,8.2E1,3.7E1,1.4E1,1E0,5E0,1.1E1,1E0,6E0,1.4E1,3E0,7E1,7E0,2E0,2.9E1,3E0,2.2E1,3.7E1,4.2E1,1.3E1,4.3E1,6.3E1,1E0,2.6E1,1E0,2E0,7E0,8E0,4E0,6E0,5E0,9E0,4E0,5E0,6E0,1E0,4E0,1E1,1.1E1,1.1E1,1.6E1,6.6E1,1.5E1,2.2E1,1.2E1,2E0,8E0,3E0,5E0,1E0,1.3E1,1E0,1.2E1,5.8E1,5E0,2E0,1E1,1.9E1,2E0,1E0],"tree_param":{"num_deleted":"0","num_feature":"22","num_nodes":"105","size_leaf_vector":"1"}},{"base_weights":[-1.792578E-2,-1.349163E-1,1.04838215E-1,-7.330615E-2,-2.629405E-1,-5.9023988E-2,1.8247509E-1,-2.3157783E-1,-2.294318E-2,1.083037E-2,-2.9615656E-1,-1.1124288E-1,2.1582788E-1,2.5578162E-1,1.2343809E-2,-5.2497697E-1,-1.3985479E-1,-9.468148E-2,5.9624758E-2,7.781184E-2,-3.129829E-2,-1.335403E-1,-3.5169086E-1,-7.198409E-2,-4.6761075E-1,4.768527E-1,-2.9063923E-2,5.5409424E-2,2.9755244E-1,-2.9328825E-2,4.436795E-1,-0E0,-5.802529E-1,-3.8297096E-1,-6.8445966E-2,-4.9800243E-2,-2.9850486E-1,1.3491422E-1,-9.5192775E-2,1.0410635E-1,-0E0,-2.8251025E-1,-4.6080854E-2,-3.887949E-1,-1.3471366E-1,-2.4169876E-1,-2.2675483E-2,-5.40784E-2,-0E0,-0E0,5.548281E-1,-4.1345856E-3,-0E0,-1.3353294E-2,4.791334E-2,4.1333345E-1,1.8641411E-1,-1.08805224E-1,9.8907344E-2,5.5397965E-2,-3.9106124E-4,-6.42385E-2,-1.6710555E-2,-0E0,-4.911772E-2,7.722331E-4,-4.4185173E-2,-8.161134E-3,1.3939458E-2,5.0375104E-4,-4.460275E-2,9.040321E-3,4.5926843E-2,3.0221692E-3,-2.7805084E-2,1.1256409E-2,-0E0,-8.196272E-3,-4.87704E-2,4.6258545E-4,-2.4971081E-2,5.7193143E-3,-3.99377E-2,-4.381985E-2,1.3037527E-2,-3.178988E-2,-3.2348894E-3,2.0811583E-3,-1.9588148E-2,6.0246594E-2,8.450066E-3,-7.2434484E-3,3.9102655E-2,2.2854792E-2,5.3410716E-2,-3.127845E-2,2.1773182E-2,-1.8855165E-3,-2.0214668E-2,-1.8793894E-2,1.9458348E-2],"categories":[],"categories_nodes":[],"categories_segments":[],"categories_sizes":[],"default_left":[0,0,0,0,0,0,0,0,0,0,0,0,0,0,0,0,0,0,0,0,0,0,0,0,0,0,0,0,0,0,0,0,0,0,0,0,0,0,0,0,0,0,0,0,0,0,0,0,0,0,0,0,0,0,0,0,0,0,0,0,0,0,0,0,0,0,0,0,0,0,0,0,0,0,0,0,0,0,0,0,0,0,0,0,0,0,0,0,0,0,0,0,0,0,0,0,0,0,0,0,0],"id":7,"left_children":[1,3,5,7,9,11,13,15,17,19,21,23,25,27,29,31,33,35,37,39,-1,41,43,45,47,49,51,53,55,57,59,-1,61,63,65,67,69,71,73,75,-1,77,79,81,83,85,87,-1,-1,-1,89,-1,-1,91,-1,93,95,97,99,-1,-1,-1,-1,-1,-1,-1,-1,-1,-1,-1,-1,-1,-1,-1,-1,-1,-1,-1,-1,-1,-1,-1,-1,-1,-1,-1,-1,-1,-1,-1,-1,-1,-1,-1,-1,-1,-1,-1,-1,-1,-1],"loss_changes":[9.137164E0,2.5184546E0,3.9668577E0,1.7388039E0,9.865675E-1,1.4487969E0,2.6015663E0,1.2864037E0,1.0161092E0,2.6111054E-1,7.534056E-1,1.1015787E0,1.0814035E0,1.1785631E0,1.2228159E0,3.9641762E-1,6.5779245E-1,7.9190564E-1,9.3764913E-1,3.094168E-2,0E0,2.9287216E-1,4.5077324E-1,6.208167E-1,2.97853E-1,3.3573186E-1,2.6544756E-3,8.396591E-1,1.4199677E0,6.232563E-1,3.533889E-1,0E0,9.4071865E-2,3.6878443E-1,1.0138422E0,4.6902186E-1,7.6281595E-1,6.831293E-1,6.2944525E-1,3.8222075E-3,0E0,2.7341974E-1,2.115209E-1,3.3079147E-1,1.0533181E0,2.2588348E-1,4.8858124E-1,0E0,0E0,0E0,3.723216E-2,0E0,0E0,5.6985444E-1,0E0,1.0960646E0,1.0591581E0,2.931389E-1,6.684542E-1,0E0,0E0,0E0,0E0,0E0,0E0,0E0,0E0,0E0,0E0,0E0,0E0,0E0,0E0,0E0,0E0,0E0,0E0,0E0,0E0,0E0,0E0,0E0,0E0,0E0,0E0,0E0,0E0,0E0,0E0,0E0,0E0,0E0,0E0,0E0,0E0,0E0,0E0,0E0,0E0,0E0,0E0],"parents":[2147483647,0,0,1,1,2,2,3,3,4,4,5,5,6,6,7,7,8,8,9,9,10,10,11,11,12,12,13,13,14,14,15,15,16,16,17,17,18,18,19,19,21,21,22,22,23,23,24,24,25,25,26,26,27,27,28,28,29,29,30,30,32,32,33,33,34,34,35,35,36,36,37,37,38,38,39,39,41,41,42,42,43,43,44,44,45,45,46,46,50,50,53,53,55,55,56,56,57,57,58,58],"right_children":[2,4,6,8,10,12,14,16,18,20,22,24,26,28,30,32,34,36,38,40,-1,42,44,46,48,50,52,54,56,58,60,-1,62,64,66,68,70,72,74,76,-1,78,80,82,84,86,88,-1,-1,-1,90,-1,-1,92,-1,94,96,98,100,-1,-1,-1,-1,-1,-1,-1,-1,-1,-1,-1,-1,-1,-1,-1,-1,-1,-1,-1,-1,-1,-1,-1,-1,-1,-1,-1,-1,-1,-1,-1,-1,-1,-1,-1,-1,-1,-1,-1,-1,-1,-1],"split_conditions":[6.504548E-1,1.4721532E0,5.516928E-1,7.107485E-1,7E0,9.1841215E-1,1.533715E0,4.627749E-1,6.721287E-1,8.377752E-1,3.330421E-1,1.88259E0,9.295177E-1,6.7963994E-1,1E0,3.2158202E-1,5.501398E-1,1.7E1,6.7375994E-1,5E0,-3.129829E-2,2.9E1,5.851E-1,6E0,1E0,1E1,1.5156407E0,8.4828734E-1,1.065216E0,4.7E1,1.8E1,-0E0,1E0,4.8248738E-1,6.906539E-1,1E0,8.791488E-1,5.85594E-1,1.2691249E0,5.7701784E-1,-0E0,1.5489694E0,1E0,4.1128224E-1,4.993158E-1,8.290807E-1,1E0,-5.40784E-2,-0E0,-0E0,4.7059953E-1,-4.1345856E-3,-0E0,1.7E1,4.791334E-2,8.704481E-1,1.1069806E0,4.9878216E-1,3E0,5.5397965E-2,-3.9106124E-4,-6.42385E-2,-1.6710555E-2,-0E0,-4.911772E-2,7.722331E-4,-4.4185173E-2,-8.161134E-3,1.3939458E-2,5.0375104E-4,-4.460275E-2,9.040321E-3,4.5926843E-2,3.0221692E-3,-2.7805084E-2,1.1256409E-2,-0E0,-8.196272E-3,-4.87704E-2,4.6258545E-4,-2.4971081E-2,5.7193143E-3,-3.99377E-2,-4.381985E-2,1.3037527E-2,-3.178988E-2,-3.2348894E-3,2.0811583E-3,-1.9588148E-2,6.0246594E-2,8.450066E-3,-7.2434484E-3,3.9102655E-2,2.2854792E-2,5.3410716E-2,-3.127845E-2,2.1773182E-2,-1.8855165E-3,-2.0214668E-2,-1.8793894E-2,1.9458348E-2],"split_indices":[3,7,1,7,8,3,7,1,1,4,4,7,3,7,18,3,7,9,4,8,0,8,3,9,16,8,7,1,7,8,8,0,19,4,7,20,7,4,7,3,0,7,20,1,1,3,11,0,0,0,1,0,0,9,0,7,7,4,9,0,0,0,0,0,0,0,0,0,0,0,0,0,0,0,0,0,0,0,0,0,0,0,0,0,0,0,0,0,0,0,0,0,0,0,0,0,0,0,0,0,0],"split_type":[0,0,0,0,0,0,0,0,0,0,0,0,0,0,0,0,0,0,0,0,0,0,0,0,0,0,0,0,0,0,0,0,0,0,0,0,0,0,0,0,0,0,0,0,0,0,0,0,0,0,0,0,0,0,0,0,0,0,0,0,0,0,0,0,0,0,0,0,0,0,0,0,0,0,0,0,0,0,0,0,0,0,0,0,0,0,0,0,0,0,0,0,0,0,0,0,0,0,0,0,0],"sum_hessian":[6.34E2,3.25E2,3.09E2,2.21E2,1.04E2,9.9E1,2.1E2,5.2E1,1.69E2,1.1E1,9.3E1,8.4E1,1.5E1,1.46E2,6.4E1,1.1E1,4.1E1,9.1E1,7.8E1,1E1,1E0,2.5E1,6.8E1,7.7E1,7E0,7E0,8E0,2.6E1,1.2E2,5.9E1,5E0,1E0,1E1,8E0,3.3E1,7.6E1,1.5E1,5.3E1,2.5E1,8E0,2E0,8E0,1.7E1,5.7E1,1.1E1,1.6E1,6.1E1,6E0,1E0,1E0,6E0,5E0,3E0,2.3E1,3E0,5.7E1,6.3E1,3.7E1,2.2E1,4E0,1E0,8E0,2E0,2E0,6E0,2.8E1,5E0,6.6E1,1E1,5E0,1E1,4.8E1,5E0,1.5E1,1E1,7E0,1E0,5E0,3E0,1.4E1,3E0,1E0,5.6E1,5E0,6E0,1.1E1,5E0,4.9E1,1.2E1,5E0,1E0,2.1E1,2E0,2.4E1,3.3E1,3E0,6E1,2E1,1.7E1,5E0,1.7E1],"tree_param":{"num_deleted":"0","num_feature":"22","num_nodes":"101","size_leaf_vector":"1"}},{"base_weights":[-1.6935131E-3,-1.1120393E-1,1.02797054E-1,-1.7908591E-1,-2.295174E-2,-3.5296593E-2,2.4087355E-1,-2.1665324E-1,-7.836984E-3,-8.365447E-2,2.1277153E-1,-9.993901E-2,9.1636494E-2,4.056726E-1,1.7374107E-1,-0E0,-2.3461169E-1,3.2661596E-1,-8.2797006E-2,-1.2414557E-1,9.976274E-2,1.4965779E-1,4.5316324E-1,-1.6950165E-1,-3.4125276E-2,1.7783012E-2,2.807269E-1,-6.490291E-3,4.544156E-1,-2.4805507E-3,2.1982405E-1,5.2908797E-2,-2.9733375E-2,-3.9997718E-1,-1.9513111E-1,2.748616E-4,4.6286246E-1,-2.8211764E-1,3.8054317E-2,-1.5298194E-1,1.14727244E-1,3.2822207E-1,-1.5151879E-1,8.047759E-2,4.5043942E-1,5.7637643E-2,-0E0,-4.2732293E-3,-2.2763124E-1,4.861324E-3,-1.343201E-1,3.7997282E-1,-5.2305892E-2,5.410273E-2,4.1468716E-1,4.699152E-2,4.9343413E-1,-6.678728E-2,3.268266E-1,2.5397304E-1,-8.24247E-2,-0E0,7.1535255E-3,-2.2752646E-2,-5.740074E-2,-2.7925381E-2,-1.1741268E-2,5.5425733E-2,4.4338955E-3,6.8373787E-3,-3.7871283E-2,-2.3721488E-2,7.4082795E-3,-1.308612E-2,-5.2662123E-2,-2.1823947E-3,3.5001002E-2,4.225479E-2,-3.0829457E-3,-0E0,-3.6476217E-2,2.041069E-3,2.4860952E-2,5.283305E-2,5.838303E-3,3.3533175E-2,-5.9625856E-3,-3.5824159E-3,-2.82474E-2,-5.138873E-3,2.0000037E-2,-1.5935985E-2,2.318668E-4,-1.5540313E-3,4.651484E-2,-9.793094E-3,3.00771E-2,-1.0703088E-2,1.5996236E-2,4.9195785E-2,-5.173917E-3,2.5715088E-2,-4.4836053E-3,5.308151E-2,1.7992323E-3,-1.457481E-2,2.9997338E-2,4.4407137E-2,-0E0,1.6900169E-2,3.797157E-2,5.2569793E-3,-2.4793316E-2],"categories":[],"categories_nodes":[],"categories_segments":[],"categories_sizes":[],"default_left":[0,0,0,0,0,0,0,0,0,0,0,0,0,0,0,0,0,0,0,0,0,0,0,0,0,0,0,0,0,0,0,0,0,0,0,0,0,0,0,0,0,0,0,0,0,0,0,0,0,0,0,0,0,0,0,0,0,0,0,0,0,0,0,0,0,0,0,0,0,0,0,0,0,0,0,0,0,0,0,0,0,0,0,0,0,0,0,0,0,0,0,0,0,0,0,0,0,0,0,0,0,0,0,0,0,0,0,0,0,0,0,0,0],"id":8,"left_children":[1,3,5,7,9,11,13,15,17,19,21,23,25,27,29,31,33,35,37,39,41,43,45,47,49,51,53,-1,55,57,59,61,-1,63,65,-1,67,69,71,73,75,77,79,81,83,-1,-1,85,87,89,91,93,95,97,99,101,103,105,107,109,111,-1,-1,-1,-1,-1,-1,-1,-1,-1,-1,-1,-1,-1,-1,-1,-1,-1,-1,-1,-1,-1,-1,-1,-1,-1,-1,-1,-1,-1,-1,-1,-1,-1,-1,-1,-1,-1,-1,-1,-1,-1,-1,-1,-1,-1,-1,-1,-1,-1,-1,-1,-1],"loss_changes":[7.2784534E0,1.838804E0,6.225993E0,1.1016927E0,1.965227E0,1.3474457E0,1.6749048E0,5.534053E-1,8.2999074E-1,8.317674E-1,2.9671514E-1,4.728744E-1,7.33231E-1,1.1235571E0,9.80536E-1,2.0760748E-1,7.242327E-1,2.1692145E-1,7.096107E-1,6.482053E-1,1.2155544E0,4.1005325E-1,3.020544E-1,4.752792E-1,2.4016169E-1,1.0934465E0,3.8606477E-1,0E0,5.904484E-1,5.252406E-1,1.0083084E0,1.5262881E-2,0E0,5.0952435E-1,6.4017487E-1,0E0,6.856871E-2,4.293415E-1,1.7977586E-1,5.4308236E-1,3.6173862E-1,4.2474484E-1,3.0262628E-1,1.801061E-1,3.263396E-2,0E0,0E0,2.7439424E-1,3.577813E-1,4.8615536E-1,7.4237406E-2,2.8800583E-1,5.7299113E-1,1.4181685E-1,3.938452E-1,1.2925324E-1,6.1092186E-1,6.6541183E-1,1.6433558E-1,7.891407E-1,2.5599742E-1,0E0,0E0,0E0,0E0,0E0,0E0,0E0,0E0,0E0,0E0,0E0,0E0,0E0,0E0,0E0,0E0,0E0,0E0,0E0,0E0,0E0,0E0,0E0,0E0,0E0,0E0,0E0,0E0,0E0,0E0,0E0,0E0,0E0,0E0,0E0,0E0,0E0,0E0,0E0,0E0,0E0,0E0,0E0,0E0,0E0,0E0,0E0,0E0,0E0,0E0,0E0,0E0],"parents":[2147483647,0,0,1,1,2,2,3,3,4,4,5,5,6,6,7,7,8,8,9,9,10,10,11,11,12,12,13,13,14,14,15,15,16,16,17,17,18,18,19,19,20,20,21,21,22,22,23,23,24,24,25,25,26,26,28,28,29,29,30,30,31,31,33,33,34,34,36,36,37,37,38,38,39,39,40,40,41,41,42,42,43,43,44,44,47,47,48,48,49,49,50,50,51,51,52,52,53,53,54,54,55,55,56,56,57,57,58,58,59,59,60,60],"right_children":[2,4,6,8,10,12,14,16,18,20,22,24,26,28,30,32,34,36,38,40,42,44,46,48,50,52,54,-1,56,58,60,62,-1,64,66,-1,68,70,72,74,76,78,80,82,84,-1,-1,86,88,90,92,94,96,98,100,102,104,106,108,110,112,-1,-1,-1,-1,-1,-1,-1,-1,-1,-1,-1,-1,-1,-1,-1,-1,-1,-1,-1,-1,-1,-1,-1,-1,-1,-1,-1,-1,-1,-1,-1,-1,-1,-1,-1,-1,-1,-1,-1,-1,-1,-1,-1,-1,-1,-1,-1,-1,-1,-1,-1,-1],"split_conditions":[6.3622487E-1,6.721287E-1,5.509727E-1,1E0,6.6052735E-1,7.2286254E-1,3.1445092E-1,7E0,3.6221448E-1,8.697843E-1,1E0,4.4306752E-1,8.641469E-1,4.224984E-1,7.026687E-1,6.358699E-1,2.5761082E1,4E1,3.681578E-1,1E0,5.060883E-1,8.412612E1,7.080284E-1,3.3985755E-1,5.916986E-1,6.950289E-1,8.1199884E-1,-6.490291E-3,1.3E1,7.6643384E-1,8.834743E1,2E0,-2.9733375E-2,3.1E1,3.3E1,2.748616E-4,5.7831997E-1,1.24946505E-1,3.3045277E-1,1E0,5.1081693E-1,1E0,6.802707E1,1E0,1E0,5.7637643E-2,-0E0,1.3452794E-1,7.026687E-1,5.56032E-1,1E0,1.0972358E-1,1E0,9.0266556E-1,7.544118E-1,6.812955E-1,1E0,8.213012E1,7.8673023E-1,7.0189965E-1,6.7429423E-1,-0E0,7.1535255E-3,-2.2752646E-2,-5.740074E-2,-2.7925381E-2,-1.1741268E-2,5.5425733E-2,4.4338955E-3,6.8373787E-3,-3.7871283E-2,-2.3721488E-2,7.4082795E-3,-1.308612E-2,-5.2662123E-2,-2.1823947E-3,3.5001002E-2,4.225479E-2,-3.0829457E-3,-0E0,-3.6476217E-2,2.041069E-3,2.4860952E-2,5.283305E-2,5.838303E-3,3.3533175E-2,-5.9625856E-3,-3.5824159E-3,-2.82474E-2,-5.138873E-3,2.0000037E-2,-1.5935985E-2,2.318668E-4,-1.5540313E-3,4.651484E-2,-9.793094E-3,3.00771E-2,-1.0703088E-2,1.5996236E-2,4.9195785E-2,-5.173917E-3,2.5715088E-2,-4.4836053E-3,5.308151E-2,1.7992323E-3,-1.457481E-2,2.9997338E-2,4.4407137E-2,-0E0,1.6900169E-2,3.797157E-2,5.2569793E-3,-2.4793316E-2],"split_indices":[3,1,2,10,2,1,0,8,3,1,10,2,3,1,3,1,5,8,0,18,0,5,2,2,1,3,1,0,8,2,5,8,0,8,8,0,0,0,2,19,3,14,5,19,13,0,0,0,3,1,16,0,17,3,0,3,19,5,0,0,1,0,0,0,0,0,0,0,0,0,0,0,0,0,0,0,0,0,0,0,0,0,0,0,0,0,0,0,0,0,0,0,0,0,0,0,0,0,0,0,0,0,0,0,0,0,0,0,0,0,0,0,0],"split_type":[0,0,0,0,0,0,0,0,0,0,0,0,0,0,0,0,0,0,0,0,0,0,0,0,0,0,0,0,0,0,0,0,0,0,0,0,0,0,0,0,0,0,0,0,0,0,0,0,0,0,0,0,0,0,0,0,0,0,0,0,0,0,0,0,0,0,0,0,0,0,0,0,0,0,0,0,0,0,0,0,0,0,0,0,0,0,0,0,0,0,0,0,0,0,0,0,0,0,0,0,0,0,0,0,0,0,0,0,0,0,0,0,0],"sum_hessian":[6.34E2,3.1E2,3.24E2,1.74E2,1.36E2,1.62E2,1.62E2,1.42E2,3.2E1,1.09E2,2.7E1,1.08E2,5.4E1,4.5E1,1.17E2,1.1E1,1.31E2,5E0,2.7E1,9E1,1.9E1,2.3E1,4E0,5.1E1,5.7E1,4E1,1.4E1,4E0,4.1E1,2.4E1,9.3E1,1E1,1E0,2.3E1,1.08E2,2E0,3E0,1E1,1.7E1,8.1E1,9E0,1E1,9E0,2E1,3E0,3E0,1E0,1.4E1,3.7E1,4.1E1,1.6E1,6E0,3.4E1,6E0,8E0,4E0,3.7E1,2.1E1,3E0,8.4E1,9E0,2E0,8E0,1.3E1,1E1,5E1,5.8E1,2E0,1E0,2E0,8E0,1E0,1.6E1,7.8E1,3E0,6E0,3E0,8E0,2E0,6E0,3E0,1.6E1,4E0,2E0,1E0,1E0,1.3E1,9E0,2.8E1,3.2E1,9E0,1.4E1,2E0,1E0,5E0,3.1E1,3E0,2E0,4E0,7E0,1E0,1E0,3E0,3.4E1,3E0,1.8E1,3E0,2E0,1E0,5.2E1,3.2E1,5E0,4E0],"tree_param":{"num_deleted":"0","num_feature":"22","num_nodes":"113","size_leaf_vector":"1"}},{"base_weights":[-9.516452E-3,-1.6532958E-1,5.840524E-2,-5.8708917E-2,-2.497489E-1,1.189506E-1,-9.216018E-2,-1.9562926E-2,-4.352235E-1,2.824636E-1,-2.633988E-1,5.6606755E-2,2.2381929E-1,-3.84373E-1,-3.3561755E-2,-5.326439E-2,3.300332E-1,-0E0,-5.822865E-2,8.13685E-4,3.6555856E-2,-2.7154312E-1,7.34037E-3,-3.285272E-1,7.058293E-2,1.3122013E-1,3.5878354E-1,-4.4856358E-1,-0E0,-5.4850888E-2,2.2690874E-1,-2.3454325E-2,-3.2521158E-1,4.681763E-2,-0E0,-2.2720933E-1,-3.7491637E-1,-5.1375367E-2,-3.6169E-3,7.113638E-3,1.2569891E-1,2.237653E-2,2.7122694E-1,-9.791407E-3,3.834793E-1,-4.9744043E-1,-1.2813452E-1,6.725658E-3,-1.1042169E-1,3.9175767E-2,-1.0879582E-2,-6.628465E-3,1.4239944E-2,-8.0749666E-4,-4.3045126E-2,-2.5842119E-2,5.7894154E-3,-4.0576052E-2,-0E0,1.7992599E-3,-4.4687536E-2,4.337474E-3,2.0844022E-2,-1.0290818E-2,2.3864595E-2,3.3223715E-2,-9.247376E-3,-1.5915247E-2,4.0170167E-2,-5.1884335E-2,-4.8899604E-3,-2.5957296E-2,-0E0,-1.0216448E-2,1.4460332E-2,-3.5926104E-2,-6.3589E-3,-0E0,-2.4184831E-3],"categories":[],"categories_nodes":[],"categories_segments":[],"categories_sizes":[],"default_left":[0,0,0,0,0,0,0,0,0,0,0,0,0,0,0,0,0,0,0,0,0,0,0,0,0,0,0,0,0,0,0,0,0,0,0,0,0,0,0,0,0,0,0,0,0,0,0,0,0,0,0,0,0,0,0,0,0,0,0,0,0,0,0,0,0,0,0,0,0,0,0,0,0,0,0,0,0,0,0],"id":9,"left_children":[1,3,5,7,9,11,13,15,17,19,21,23,25,27,29,31,33,-1,-1,-1,-1,35,-1,37,39,41,43,45,-1,47,49,51,53,-1,-1,55,57,-1,-1,59,61,63,65,-1,67,69,71,73,75,-1,77,-1,-1,-1,-1,-1,-1,-1,-1,-1,-1,-1,-1,-1,-1,-1,-1,-1,-1,-1,-1,-1,-1,-1,-1,-1,-1,-1,-1],"loss_changes":[6.793527E0,1.7096562E0,4.079394E0,1.2430422E0,8.570757E-1,2.0448833E0,2.1370773E0,9.442362E-1,5.189891E-1,2.8041467E-2,3.3050632E-1,1.0846996E0,1.378634E0,5.191722E-1,5.94121E-1,5.655131E-1,3.334918E-1,0E0,0E0,0E0,0E0,3.3122826E-1,0E0,3.05493E-1,6.714664E-1,1.0617672E0,5.961933E-1,1.5561104E-1,0E0,3.5671997E-1,3.5594314E-1,4.9197382E-1,1.8629897E-1,0E0,0E0,7.1130824E-1,3.6901712E-1,0E0,0E0,4.2447254E-1,6.7418504E-1,1.1761328E0,7.42573E-1,0E0,5.3314877E-1,6.185603E-2,6.9082424E-2,7.39666E-1,5.64176E-1,0E0,1.2812568E-3,0E0,0E0,0E0,0E0,0E0,0E0,0E0,0E0,0E0,0E0,0E0,0E0,0E0,0E0,0E0,0E0,0E0,0E0,0E0,0E0,0E0,0E0,0E0,0E0,0E0,0E0,0E0,0E0],"parents":[2147483647,0,0,1,1,2,2,3,3,4,4,5,5,6,6,7,7,8,8,9,9,10,10,11,11,12,12,13,13,14,14,15,15,16,16,21,21,23,23,24,24,25,25,26,26,27,27,29,29,30,30,31,31,32,32,35,35,36,36,39,39,40,40,41,41,42,42,44,44,45,45,46,46,47,47,48,48,50,50],"right_children":[2,4,6,8,10,12,14,16,18,20,22,24,26,28,30,32,34,-1,-1,-1,-1,36,-1,38,40,42,44,46,-1,48,50,52,54,-1,-1,56,58,-1,-1,60,62,64,66,-1,68,70,72,74,76,-1,78,-1,-1,-1,-1,-1,-1,-1,-1,-1,-1,-1,-1,-1,-1,-1,-1,-1,-1,-1,-1,-1,-1,-1,-1,-1,-1,-1,-1],"split_conditions":[5.050145E-1,1.1380347E0,1.533715E0,1E0,3.0491588E-1,7.227672E-1,4.8732358E-1,8.630298E-1,7E0,4.9156222E-1,8.771297E-1,5.3136426E-1,7.7938044E-1,9.0652364E-1,1E0,4.8670533E-1,1E0,-0E0,-5.822865E-2,8.13685E-4,3.6555856E-2,6.9977057E-1,7.34037E-3,5.150325E-1,7.121037E-1,1.4E1,5.501398E-1,1E0,-0E0,1E1,4.7247842E-1,4.4950575E-1,5.2569425E-1,4.681763E-2,-0E0,6.503588E-1,1E0,-5.1375367E-2,-3.6169E-3,7.0787853E-1,5.4882514E-1,6.2118065E-1,1E0,-9.791407E-3,1.4145882E-1,8.5067236E-1,1.64187E-1,7.4214834E-1,5.9392935E-1,3.9175767E-2,6.968359E-1,-6.628465E-3,1.4239944E-2,-8.0749666E-4,-4.3045126E-2,-2.5842119E-2,5.7894154E-3,-4.0576052E-2,-0E0,1.7992599E-3,-4.4687536E-2,4.337474E-3,2.0844022E-2,-1.0290818E-2,2.3864595E-2,3.3223715E-2,-9.247376E-3,-1.5915247E-2,4.0170167E-2,-5.1884335E-2,-4.8899604E-3,-2.5957296E-2,-0E0,-1.0216448E-2,1.4460332E-2,-3.5926104E-2,-6.3589E-3,-0E0,-2.4184831E-3],"split_indices":[3,7,7,20,3,1,1,1,9,0,6,7,3,3,18,3,17,0,0,0,0,6,0,0,3,9,7,16,0,9,0,3,6,0,0,6,19,0,0,3,1,6,13,0,0,0,0,3,3,0,0,0,0,0,0,0,0,0,0,0,0,0,0,0,0,0,0,0,0,0,0,0,0,0,0,0,0,0,0],"split_type":[0,0,0,0,0,0,0,0,0,0,0,0,0,0,0,0,0,0,0,0,0,0,0,0,0,0,0,0,0,0,0,0,0,0,0,0,0,0,0,0,0,0,0,0,0,0,0,0,0,0,0,0,0,0,0,0,0,0,0,0,0,0,0,0,0,0,0,0,0,0,0,0,0,0,0,0,0,0,0],"sum_hessian":[6.39E2,1.94E2,4.45E2,8.7E1,1.07E2,3.18E2,1.27E2,8E1,7E0,2E0,1.05E2,2.01E2,1.17E2,2E1,1.07E2,7.4E1,6E0,2E0,5E0,1E0,1E0,1.03E2,2E0,6E0,1.95E2,7.1E1,4.6E1,1.7E1,3E0,1E2,7E0,6.8E1,6E0,4E0,2E0,7.5E1,2.8E1,3E0,3E0,9.2E1,1.03E2,4.1E1,3E1,2E0,4.4E1,1.4E1,3E0,4.7E1,5.3E1,4E0,3E0,5.5E1,1.3E1,2E0,4E0,6.8E1,7E0,2.6E1,2E0,9.1E1,1E0,5.3E1,5E1,2.6E1,1.5E1,2.6E1,4E0,1E0,4.3E1,1.3E1,1E0,1E0,2E0,2.6E1,2.1E1,7E0,4.6E1,1E0,2E0],"tree_param":{"num_deleted":"0","num_feature":"22","num_nodes":"79","size_leaf_vector":"1"}},{"base_weights":[8.185792E-3,-8.335154E-2,1.1593063E-1,-1.840695E-1,-3.2680035E-3,3.2153137E-2,2.261988E-1,-1.275354E-1,-3.762454E-1,6.6350736E-2,-8.269893E-2,-1.381733E-1,8.2748026E-2,2.581512E-1,-1.3343362E-2,-3.3076927E-1,-9.561543E-2,-5.4579534E-2,-1.0712584E-1,-5.9447784E-2,1.3238165E-1,-1.6319668E-1,3.450803E-2,-6.441077E-2,-4.1267207E-1,1.5217346E-1,-4.982723E-2,2.8701603E-1,-1.0579917E-1,1.629877E-1,-2.2254789E-1,-5.4328885E-2,-1.3892867E-1,-3.650119E-3,-1.7469442E-1,-2.66737E-1,5.337606E-2,-4.8081346E-2,-1.877508E-2,8.206709E-2,2.9395875E-1,-2.933924E-1,-5.6587916E-2,4.4289015E-2,-0E0,2.6896605E-1,-1.1004732E-1,-0E0,-4.750289E-2,-2.2039168E-2,2.005126E-1,-2.3518987E-1,1.05666295E-2,3.1188327E-1,2.1287345E-3,-2.0217216E-2,1.21004194E-1,-0E0,3.8382303E-2,-8.814345E-2,-3.838408E-2,-3.0860022E-2,8.952403E-4,2.0266779E-2,-5.387172E-3,-2.0221258E-2,1.3744053E-2,3.8634501E-3,-4.7768682E-2,-2.2563582E-2,1.3975429E-2,-6.8335854E-3,1.7494457E-2,5.760673E-3,4.616645E-2,3.9433252E-2,-8.074562E-3,-1.6170848E-2,-4.9841844E-2,-3.989996E-2,1.5235584E-3,-4.6000197E-3,2.481915E-2,-5.4272367E-3,4.2813633E-2,2.5383085E-2,-1.347959E-2,-3.2143664E-2,5.373156E-4,2.7813619E-2,-0E0,4.530795E-3,-3.936023E-2,-3.0471904E-3,1.9922225E-2,3.400633E-2,9.1610495E-3,6.2549324E-3,-8.295077E-4,1.8203868E-2,-0E0,-2.4913715E-3,1.5845952E-4,-1.0388336E-2,-0E0],"categories":[],"categories_nodes":[],"categories_segments":[],"categories_sizes":[],"default_left":[0,0,0,0,0,0,0,0,0,0,0,0,0,0,0,0,0,0,0,0,0,0,0,0,0,0,0,0,0,0,0,0,0,0,0,0,0,0,0,0,0,0,0,0,0,0,0,0,0,0,0,0,0,0,0,0,0,0,0,0,0,0,0,0,0,0,0,0,0,0,0,0,0,0,0,0,0,0,0,0,0,0,0,0,0,0,0,0,0,0,0,0,0,0,0,0,0,0,0,0,0,0,0,0,0],"id":10,"left_children":[1,3,5,7,9,11,13,15,17,19,21,23,25,27,29,31,33,-1,35,37,39,41,43,45,47,49,51,53,55,57,59,-1,61,63,65,67,69,-1,71,73,75,77,79,-1,81,83,85,-1,-1,87,89,91,93,95,97,-1,99,101,-1,103,-1,-1,-1,-1,-1,-1,-1,-1,-1,-1,-1,-1,-1,-1,-1,-1,-1,-1,-1,-1,-1,-1,-1,-1,-1,-1,-1,-1,-1,-1,-1,-1,-1,-1,-1,-1,-1,-1,-1,-1,-1,-1,-1,-1,-1],"loss_changes":[6.5420117E0,2.8682392E0,2.7844791E0,1.618227E0,1.118628E0,1.5139791E0,1.0305915E0,7.3015E-1,1.4732614E0,9.0396845E-1,9.148157E-1,7.3562026E-1,1.269574E0,1.2671113E0,6.3245666E-1,5.08618E-1,7.7423304E-1,0E0,4.1984195E-1,5.7512283E-1,5.154805E-1,7.3955965E-1,5.4201365E-1,5.157746E-1,2.171812E-1,7.8018236E-1,5.511015E-1,7.330456E-1,2.2929993E-1,3.5019553E-1,9.239638E-2,0E0,2.8363958E-1,5.348425E-1,5.324532E-1,5.777049E-1,2.1574984E-1,0E0,3.3732545E-1,4.414429E-1,6.6496694E-1,5.283544E-1,8.560312E-1,0E0,4.373067E-1,2.6642215E-1,2.9247597E-1,0E0,0E0,1.9747709E-1,1.0907702E0,5.8587474E-1,3.016631E-1,5.402012E-1,1.2242404E-2,0E0,2.235011E-2,1.8721235E-3,0E0,7.3431544E-3,0E0,0E0,0E0,0E0,0E0,0E0,0E0,0E0,0E0,0E0,0E0,0E0,0E0,0E0,0E0,0E0,0E0,0E0,0E0,0E0,0E0,0E0,0E0,0E0,0E0,0E0,0E0,0E0,0E0,0E0,0E0,0E0,0E0,0E0,0E0,0E0,0E0,0E0,0E0,0E0,0E0,0E0,0E0,0E0,0E0],"parents":[2147483647,0,0,1,1,2,2,3,3,4,4,5,5,6,6,7,7,8,8,9,9,10,10,11,11,12,12,13,13,14,14,15,15,16,16,18,18,19,19,20,20,21,21,22,22,23,23,24,24,25,25,26,26,27,27,28,28,29,29,30,30,32,32,33,33,34,34,35,35,36,36,38,38,39,39,40,40,41,41,42,42,44,44,45,45,46,46,49,49,50,50,51,51,52,52,53,53,54,54,56,56,57,57,59,59],"right_children":[2,4,6,8,10,12,14,16,18,20,22,24,26,28,30,32,34,-1,36,38,40,42,44,46,48,50,52,54,56,58,60,-1,62,64,66,68,70,-1,72,74,76,78,80,-1,82,84,86,-1,-1,88,90,92,94,96,98,-1,100,102,-1,104,-1,-1,-1,-1,-1,-1,-1,-1,-1,-1,-1,-1,-1,-1,-1,-1,-1,-1,-1,-1,-1,-1,-1,-1,-1,-1,-1,-1,-1,-1,-1,-1,-1,-1,-1,-1,-1,-1,-1,-1,-1,-1,-1,-1,-1],"split_conditions":[6.7089635E-1,6.086974E-1,6.891799E-1,1.6245886E0,1.2521622E0,3.507515E-1,1E0,6.6891384E-1,6.377084E-1,7.0455664E-1,4.9973848E-1,1.7444657E0,1.5035803E0,8.834743E1,1.3E1,4.5957035E-1,1.1380347E0,-5.4579534E-2,5.8284086E-1,1.7555436E-1,7.039978E-1,1E1,3E0,5E0,1E1,7.211795E-1,4.900793E-1,1.8345311E0,1E0,2.3E1,6.603675E1,-5.4328885E-2,5.7374126E-1,2.5423855E-1,1.603281E0,2.8864598E-1,4.6164188E-1,-4.8081346E-2,1.7E1,6.510078E-1,8.562368E-1,6.340462E-1,3.28669E-1,4.4289015E-2,5.9E1,7.7938044E-1,6.950289E-1,-0E0,-4.750289E-2,5.3136426E-1,4.8E1,7.039978E-1,1E0,1E0,7.188871E-1,-2.0217216E-2,5.2676886E-1,1.8061957E0,3.8382303E-2,7.1677375E-1,-3.838408E-2,-3.0860022E-2,8.952403E-4,2.0266779E-2,-5.387172E-3,-2.0221258E-2,1.3744053E-2,3.8634501E-3,-4.7768682E-2,-2.2563582E-2,1.3975429E-2,-6.8335854E-3,1.7494457E-2,5.760673E-3,4.616645E-2,3.9433252E-2,-8.074562E-3,-1.6170848E-2,-4.9841844E-2,-3.989996E-2,1.5235584E-3,-4.6000197E-3,2.481915E-2,-5.4272367E-3,4.2813633E-2,2.5383085E-2,-1.347959E-2,-3.2143664E-2,5.373156E-4,2.7813619E-2,-0E0,4.530795E-3,-3.936023E-2,-3.0471904E-3,1.9922225E-2,3.400633E-2,9.1610495E-3,6.2549324E-3,-8.295077E-4,1.8203868E-2,-0E0,-2.4913715E-3,1.5845952E-4,-1.0388336E-2,-0E0],"split_indices":[3,1,1,7,7,6,13,7,0,7,3,7,7,5,9,1,7,0,6,0,6,9,9,9,8,7,1,7,19,8,5,0,7,6,7,6,1,0,9,3,6,0,6,0,8,3,3,0,0,7,8,6,10,21,1,0,0,7,0,0,0,0,0,0,0,0,0,0,0,0,0,0,0,0,0,0,0,0,0,0,0,0,0,0,0,0,0,0,0,0,0,0,0,0,0,0,0,0,0,0,0,0,0,0,0],"split_type":[0,0,0,0,0,0,0,0,0,0,0,0,0,0,0,0,0,0,0,0,0,0,0,0,0,0,0,0,0,0,0,0,0,0,0,0,0,0,0,0,0,0,0,0,0,0,0,0,0,0,0,0,0,0,0,0,0,0,0,0,0,0,0,0,0,0,0,0,0,0,0,0,0,0,0,0,0,0,0,0,0,0,0,0,0,0,0,0,0,0,0,0,0,0,0,0,0,0,0,0,0,0,0,0,0],"sum_hessian":[6.61E2,3.57E2,3.04E2,1.57E2,2E2,1.74E2,1.3E2,1.23E2,3.4E1,1.06E2,9.4E1,3.9E1,1.35E2,1.15E2,1.5E1,1.5E1,1.08E2,2E1,1.4E1,3.6E1,7E1,5.6E1,3.8E1,3.2E1,7E0,8.9E1,4.6E1,1.07E2,8E0,8E0,7E0,6E0,9E0,5.1E1,5.7E1,7E0,7E0,2E0,3.4E1,5.5E1,1.5E1,2.4E1,3.2E1,2E0,3.6E1,3E0,2.9E1,1E0,6E0,1.9E1,7E1,1.1E1,3.5E1,9.8E1,9E0,6E0,2E0,5E0,3E0,5E0,2E0,4E0,5E0,9E0,4.2E1,5.3E1,4E0,3E0,4E0,1E0,6E0,2.8E1,6E0,5.3E1,2E0,1.2E1,3E0,1.6E1,8E0,5E0,2.7E1,3.1E1,5E0,1E0,2E0,1E0,2.8E1,1E0,1.8E1,5E1,2E1,4E0,7E0,2.9E1,6E0,8.6E1,1.2E1,2E0,7E0,1E0,1E0,2E0,3E0,4E0,1E0],"tree_param":{"num_deleted":"0","num_feature":"22","num_nodes":"105","size_leaf_vector":"1"}},{"base_weights":[1.575752E-3,-9.463762E-2,8.017507E-2,-1.3897902E-1,-2.8939264E-2,1.4775901E-2,1.896395E-1,1.3375513E-1,-1.7166516E-1,-1.1594771E-1,3.1433452E-2,-1.15674935E-1,4.4569485E-2,1.17564335E-1,2.7024326E-1,4.3149143E-2,5.390687E-2,-1.3321514E-1,-3.4459352E-1,9.525673E-2,-1.8401542E-1,6.524391E-2,-3.8762712E-1,-1.7757554E-1,1.0615774E-1,8.4088944E-2,-7.18789E-2,1.540128E-1,-1.7166288E-1,3.6860007E-1,1.0728123E-1,1.14251934E-1,-1.3736579E-2,-2.4635169E-1,-6.438607E-2,-4.3741575E-1,-1.587387E-2,2.2456037E-1,-1.1068043E-1,-2.8082615E-1,-4.771893E-2,-3.2224834E-1,9.122301E-2,-1.830126E-3,-4.5038328E-2,-3.5777527E-1,-1.3548361E-1,-3.272118E-2,4.28156E-2,6.287723E-2,3.6059862E-1,-1.0595355E-1,4.0715072E-2,-3.0670388E-2,1.6800345E-1,-3.6184424E-1,8.3979554E-2,3.9396358E-1,-8.386361E-3,-5.6535486E-2,2.1600695E-1,1.2347662E-2,-0E0,-1.7057493E-2,1.4690082E-3,-3.13955E-2,-7.9041235E-3,-1.8059235E-3,-2.7104214E-2,-5.142426E-2,-1.5577937E-2,4.4575925E-3,-2.3928633E-2,3.328573E-2,8.049151E-4,-2.3940375E-2,-0E0,-0E0,-3.9226133E-2,-0E0,-2.8262231E-2,-3.842098E-2,-1.8181991E-3,1.1935603E-2,-2.2773806E-2,-2.2766304E-3,-4.1083593E-2,-6.278023E-3,-2.5007164E-2,-5.0189025E-3,-0E0,-4.677989E-3,1.13721E-2,5.066797E-2,-6.7123505E-3,-6.7915358E-3,-2.5138123E-2,3.789101E-2,1.3245334E-2,-1.1085073E-2,-4.5888968E-2,-9.64396E-4,2.3242505E-2,-8.51122E-5,4.217911E-2,-5.8343303E-3,-0E0,-1.1390407E-2,1.798909E-2,2.8059993E-2,-1.0256491E-2],"categories":[],"categories_nodes":[],"categories_segments":[],"categories_sizes":[],"default_left":[0,0,0,0,0,0,0,0,0,0,0,0,0,0,0,0,0,0,0,0,0,0,0,0,0,0,0,0,0,0,0,0,0,0,0,0,0,0,0,0,0,0,0,0,0,0,0,0,0,0,0,0,0,0,0,0,0,0,0,0,0,0,0,0,0,0,0,0,0,0,0,0,0,0,0,0,0,0,0,0,0,0,0,0,0,0,0,0,0,0,0,0,0,0,0,0,0,0,0,0,0,0,0,0,0,0,0,0,0,0,0],"id":11,"left_children":[1,3,5,7,9,11,13,15,17,19,21,23,25,27,29,31,-1,33,35,37,39,41,43,45,47,49,51,53,55,57,59,61,63,65,67,69,71,73,75,77,79,81,83,-1,-1,85,87,89,-1,91,93,95,-1,-1,97,99,101,103,105,107,109,-1,-1,-1,-1,-1,-1,-1,-1,-1,-1,-1,-1,-1,-1,-1,-1,-1,-1,-1,-1,-1,-1,-1,-1,-1,-1,-1,-1,-1,-1,-1,-1,-1,-1,-1,-1,-1,-1,-1,-1,-1,-1,-1,-1,-1,-1,-1,-1,-1,-1],"loss_changes":[4.717458E0,7.948704E-1,2.4394119E0,1.5065804E0,6.161837E-1,8.4143674E-1,6.7306805E-1,5.795469E-1,8.970299E-1,7.164623E-1,9.565188E-1,5.7525575E-1,8.264173E-1,7.626054E-1,8.585448E-1,7.6336704E-2,0E0,9.18663E-1,7.410519E-1,3.557835E-1,4.419583E-1,6.5056276E-1,6.0776293E-2,1.4492011E-1,4.5602217E-1,7.209217E-1,7.475439E-1,4.437381E-1,4.4712144E-1,3.8608313E-1,4.556254E-1,2.2972897E-3,5.821976E-2,4.561789E-1,7.2251904E-1,2.8563404E-1,1.24674104E-1,1.508101E-1,5.3377513E-2,6.5190446E-1,2.0091547E-1,2.813667E-2,5.637173E-1,0E0,0E0,3.6165476E-2,1.862815E-1,5.0999597E-3,0E0,7.14512E-1,6.403048E-1,1.888654E-1,0E0,0E0,3.6353672E-1,1.3946593E-2,8.011156E-2,4.1600132E-1,6.596889E-3,1.4952609E-1,3.5524565E-1,0E0,0E0,0E0,0E0,0E0,0E0,0E0,0E0,0E0,0E0,0E0,0E0,0E0,0E0,0E0,0E0,0E0,0E0,0E0,0E0,0E0,0E0,0E0,0E0,0E0,0E0,0E0,0E0,0E0,0E0,0E0,0E0,0E0,0E0,0E0,0E0,0E0,0E0,0E0,0E0,0E0,0E0,0E0,0E0,0E0,0E0,0E0,0E0,0E0,0E0],"parents":[2147483647,0,0,1,1,2,2,3,3,4,4,5,5,6,6,7,7,8,8,9,9,10,10,11,11,12,12,13,13,14,14,15,15,17,17,18,18,19,19,20,20,21,21,22,22,23,23,24,24,25,25,26,26,27,27,28,28,29,29,30,30,31,31,32,32,33,33,34,34,35,35,36,36,37,37,38,38,39,39,40,40,41,41,42,42,45,45,46,46,47,47,49,49,50,50,51,51,54,54,55,55,56,56,57,57,58,58,59,59,60,60],"right_children":[2,4,6,8,10,12,14,16,18,20,22,24,26,28,30,32,-1,34,36,38,40,42,44,46,48,50,52,54,56,58,60,62,64,66,68,70,72,74,76,78,80,82,84,-1,-1,86,88,90,-1,92,94,96,-1,-1,98,100,102,104,106,108,110,-1,-1,-1,-1,-1,-1,-1,-1,-1,-1,-1,-1,-1,-1,-1,-1,-1,-1,-1,-1,-1,-1,-1,-1,-1,-1,-1,-1,-1,-1,-1,-1,-1,-1,-1,-1,-1,-1,-1,-1,-1,-1,-1,-1,-1,-1,-1,-1,-1,-1],"split_conditions":[5.993507E-1,6.721287E-1,7.227672E-1,2.6029503E-1,9E0,3.3533746E-1,5.37371E-1,1E0,7.3457456E-1,9E0,5.7282275E-1,8.5287815E-1,1.5E1,8.759827E1,7.3457456E-1,5.668309E1,5.390687E-2,2.1E1,7.828438E1,4.90125E1,5.951384E-1,2.5115958E-1,2.3531583E-1,3.1804907E-1,5.4882514E-1,8.0202615E-1,9.351632E-1,1.0972998E1,7.8008044E-1,8.93448E-1,3.3E1,5.7E1,4.2834023E-1,4.7228017E-1,7.7716196E-1,8.262745E-1,5.5383956E-1,8E0,3.6446577E-1,3.6E1,7E0,7.377934E-1,1E0,-1.830126E-3,-4.5038328E-2,7.026687E-1,7.337789E-1,7.164759E-1,4.28156E-2,7.055323E-1,1E0,1E0,4.0715072E-2,-3.0670388E-2,7.5735945E-1,7.6438904E-1,7.524134E-1,5E0,8.959814E-1,8.2134724E-1,1E0,1.2347662E-2,-0E0,-1.7057493E-2,1.4690082E-3,-3.13955E-2,-7.9041235E-3,-1.8059235E-3,-2.7104214E-2,-5.142426E-2,-1.5577937E-2,4.4575925E-3,-2.3928633E-2,3.328573E-2,8.049151E-4,-2.3940375E-2,-0E0,-0E0,-3.9226133E-2,-0E0,-2.8262231E-2,-3.842098E-2,-1.8181991E-3,1.1935603E-2,-2.2773806E-2,-2.2766304E-3,-4.1083593E-2,-6.278023E-3,-2.5007164E-2,-5.0189025E-3,-0E0,-4.677989E-3,1.13721E-2,5.066797E-2,-6.7123505E-3,-6.7915358E-3,-2.5138123E-2,3.789101E-2,1.3245334E-2,-1.1085073E-2,-4.5888968E-2,-9.64396E-4,2.3242505E-2,-8.51122E-5,4.217911E-2,-5.8343303E-3,-0E0,-1.1390407E-2,1.798909E-2,2.8059993E-2,-1.0256491E-2],"split_indices":[3,1,1,6,9,6,4,20,4,8,3,3,9,5,4,5,0,8,5,5,4,6,4,4,1,4,3,5,1,1,8,8,1,3,6,4,1,8,3,8,9,1,20,0,0,3,4,4,0,3,13,13,0,0,1,1,3,8,1,4,21,0,0,0,0,0,0,0,0,0,0,0,0,0,0,0,0,0,0,0,0,0,0,0,0,0,0,0,0,0,0,0,0,0,0,0,0,0,0,0,0,0,0,0,0,0,0,0,0,0,0],"split_type":[0,0,0,0,0,0,0,0,0,0,0,0,0,0,0,0,0,0,0,0,0,0,0,0,0,0,0,0,0,0,0,0,0,0,0,0,0,0,0,0,0,0,0,0,0,0,0,0,0,0,0,0,0,0,0,0,0,0,0,0,0,0,0,0,0,0,0,0,0,0,0,0,0,0,0,0,0,0,0,0,0,0,0,0,0,0,0,0,0,0,0,0,0,0,0,0,0,0,0,0,0,0,0,0,0,0,0,0,0,0,0],"sum_hessian":[6.22E2,2.79E2,3.43E2,1.65E2,1.14E2,2.16E2,1.27E2,1.7E1,1.48E2,4.7E1,6.7E1,3.9E1,1.77E2,6.9E1,5.8E1,1.5E1,2E0,1.23E2,2.5E1,1.1E1,3.6E1,6.3E1,4E0,3.1E1,8E0,1.33E2,4.4E1,6.2E1,7E0,3.5E1,2.3E1,7E0,8E0,4.5E1,7.8E1,1.9E1,6E0,7E0,4E0,2E1,1.6E1,3E0,6E1,1E0,3E0,4E0,2.7E1,6E0,2E0,1.25E2,8E0,4.2E1,2E0,1E0,6.1E1,4E0,3E0,3.3E1,2E0,9E0,1.4E1,6E0,1E0,1E0,7E0,3.1E1,1.4E1,6.5E1,1.3E1,1.4E1,5E0,5E0,1E0,4E0,3E0,1E0,3E0,6E0,1.4E1,1.4E1,2E0,2E0,1E0,5.6E1,4E0,1E0,3E0,1.8E1,9E0,4E0,2E0,3.9E1,8.6E1,6E0,2E0,3.5E1,7E0,7E0,5.4E1,2E0,2E0,2E0,1E0,2E0,3.1E1,1E0,1E0,8E0,1E0,1.2E1,2E0],"tree_param":{"num_deleted":"0","num_feature":"22","num_nodes":"111","size_leaf_vector":"1"}},{"base_weights":[-8.363515E-3,-9.391764E-2,9.301349E-2,-4.585718E-2,-1.7829406E-1,1.3521256E-1,-1.16154194E-1,-6.417529E-2,1.6484618E-1,-1.854691E-1,1.4676389E-1,1.8014786E-1,3.3685002E-2,-5.920294E-2,-3.5790962E-1,-1.6804434E-1,-2.8294057E-2,-2.1609642E-2,2.6820824E-1,2.4857132E-2,-1.9345392E-1,-0E0,2.5292171E-2,2.3753415E-1,4.6013597E-2,-1.0793066E-2,2.4492711E-1,1.0198407E-2,-2.0587695E-1,-3.691133E-2,-4.955902E-2,-3.0224368E-1,-9.914075E-2,4.0452294E-2,-8.60118E-2,-0E0,-5.53555E-3,4.3070674E-1,-2.543104E-2,-2.8059052E-3,1.0282095E-2,-1.6009244E-1,-2.8191975E-1,-9.9697135E-2,2.5407672E-1,-1.2296423E-1,9.557837E-2,1.7173105E-1,-6.164969E-2,-6.71015E-2,3.4521687E-1,7.809879E-2,-2.0007405E-1,-2.7633932E-1,1.4363846E-3,-6.6600177E-3,-0E0,-1.8877141E-2,-5.1682282E-2,-4.7763917E-3,-2.0714382E-2,-7.004095E-3,1.4956864E-2,-1.35957375E-2,1.5612413E-2,5.042233E-2,-0E0,1.6986541E-2,-2.4558382E-2,-1.919242E-2,2.154826E-3,-3.238435E-2,5.7026544E-3,-0E0,-1.2785228E-2,3.602758E-2,1.6391689E-2,-4.6153744E-3,-3.0467778E-2,5.791496E-3,4.1390203E-2,-8.155662E-3,3.3261936E-2,-8.813976E-3,3.67068E-2,-0E0,-9.398605E-3,4.445136E-2,3.5319233E-3,1.07990885E-2,-2.3976363E-2,-2.6875619E-2,-0E0,3.1643163E-3,-3.203019E-2],"categories":[],"categories_nodes":[],"categories_segments":[],"categories_sizes":[],"default_left":[0,0,0,0,0,0,0,0,0,0,0,0,0,0,0,0,0,0,0,0,0,0,0,0,0,0,0,0,0,0,0,0,0,0,0,0,0,0,0,0,0,0,0,0,0,0,0,0,0,0,0,0,0,0,0,0,0,0,0,0,0,0,0,0,0,0,0,0,0,0,0,0,0,0,0,0,0,0,0,0,0,0,0,0,0,0,0,0,0,0,0,0,0,0,0],"id":12,"left_children":[1,3,5,7,9,11,13,15,17,19,21,23,25,27,29,31,33,35,37,39,41,-1,-1,43,45,47,49,51,53,55,-1,57,59,61,63,-1,-1,65,67,-1,-1,69,71,73,75,77,79,81,83,85,87,89,91,93,-1,-1,-1,-1,-1,-1,-1,-1,-1,-1,-1,-1,-1,-1,-1,-1,-1,-1,-1,-1,-1,-1,-1,-1,-1,-1,-1,-1,-1,-1,-1,-1,-1,-1,-1,-1,-1,-1,-1,-1,-1],"loss_changes":[5.6377463E0,1.4008837E0,2.6391366E0,8.7666106E-1,3.272934E-1,1.1039667E0,6.255132E-1,7.5827104E-1,3.7735993E-1,2.3159552E-1,6.331986E-2,1.2769818E0,7.5891685E-1,4.4920117E-1,3.2621396E-1,4.1997814E-1,6.3496095E-1,8.988087E-3,6.240723E-1,3.0988982E-2,2.6777935E-1,0E0,0E0,7.0463085E-1,4.5290756E-1,6.029455E-1,4.8908204E-1,4.1747782E-1,2.4742854E-1,7.856963E-3,0E0,2.4580836E-1,1.6992286E-1,8.865052E-1,1.0713544E0,0E0,0E0,2.956215E-1,2.642633E-1,0E0,0E0,5.473299E-1,4.8565626E-1,2.2093907E-2,9.8006296E-1,1.1834489E-1,4.3239164E-1,6.22748E-1,5.9501207E-1,8.489683E-3,2.7480674E-1,2.3125117E-1,8.0942094E-2,1.8793797E-1,0E0,0E0,0E0,0E0,0E0,0E0,0E0,0E0,0E0,0E0,0E0,0E0,0E0,0E0,0E0,0E0,0E0,0E0,0E0,0E0,0E0,0E0,0E0,0E0,0E0,0E0,0E0,0E0,0E0,0E0,0E0,0E0,0E0,0E0,0E0,0E0,0E0,0E0,0E0,0E0,0E0],"parents":[2147483647,0,0,1,1,2,2,3,3,4,4,5,5,6,6,7,7,8,8,9,9,10,10,11,11,12,12,13,13,14,14,15,15,16,16,17,17,18,18,19,19,20,20,23,23,24,24,25,25,26,26,27,27,28,28,29,29,31,31,32,32,33,33,34,34,37,37,38,38,41,41,42,42,43,43,44,44,45,45,46,46,47,47,48,48,49,49,50,50,51,51,52,52,53,53],"right_children":[2,4,6,8,10,12,14,16,18,20,22,24,26,28,30,32,34,36,38,40,42,-1,-1,44,46,48,50,52,54,56,-1,58,60,62,64,-1,-1,66,68,-1,-1,70,72,74,76,78,80,82,84,86,88,90,92,94,-1,-1,-1,-1,-1,-1,-1,-1,-1,-1,-1,-1,-1,-1,-1,-1,-1,-1,-1,-1,-1,-1,-1,-1,-1,-1,-1,-1,-1,-1,-1,-1,-1,-1,-1,-1,-1,-1,-1,-1,-1],"split_conditions":[5.6379396E-1,1.445883E0,1.7308646E0,1E0,5.4837173E-1,6.643123E-1,1E0,7.107485E-1,4.2626214E-1,2.0930493E-1,6.161382E-1,1.5E1,7.544118E-1,7.337789E-1,4.2831746E-1,3.8698184E-1,1.065216E0,3.2243028E-1,4.8002994E-1,1.6078086E0,7.1763223E-1,-0E0,2.5292171E-2,6.098684E-1,2.7470645E-1,2.1206722E-1,7.0724446E-1,7.649749E-1,1.9132782E0,7.172291E-1,-4.955902E-2,6.7963994E-1,1E0,8.748526E-1,1E0,-0E0,-5.53555E-3,7.993075E-1,3.2856968E-1,-2.8059052E-3,1.0282095E-2,6.436483E-1,5.2782476E-1,2.0248295E-1,1.0524431E0,2.666354E-1,8.31439E-1,7.337789E-1,8.377752E-1,6.533021E-1,7.9480857E-1,1.9E1,5.3884244E-1,3E0,1.4363846E-3,-6.6600177E-3,-0E0,-1.8877141E-2,-5.1682282E-2,-4.7763917E-3,-2.0714382E-2,-7.004095E-3,1.4956864E-2,-1.35957375E-2,1.5612413E-2,5.042233E-2,-0E0,1.6986541E-2,-2.4558382E-2,-1.919242E-2,2.154826E-3,-3.238435E-2,5.7026544E-3,-0E0,-1.2785228E-2,3.602758E-2,1.6391689E-2,-4.6153744E-3,-3.0467778E-2,5.791496E-3,4.1390203E-2,-8.155662E-3,3.3261936E-2,-8.813976E-3,3.67068E-2,-0E0,-9.398605E-3,4.445136E-2,3.5319233E-3,1.07990885E-2,-2.3976363E-2,-2.6875619E-2,-0E0,3.1643163E-3,-3.203019E-2],"split_indices":[2,7,7,18,2,4,14,7,4,4,0,9,0,4,0,2,7,2,2,7,6,0,0,7,4,0,4,6,7,2,0,7,11,7,10,0,0,6,0,0,0,6,2,4,7,4,0,4,4,2,4,9,4,9,0,0,0,0,0,0,0,0,0,0,0,0,0,0,0,0,0,0,0,0,0,0,0,0,0,0,0,0,0,0,0,0,0,0,0,0,0,0,0,0,0],"split_type":[0,0,0,0,0,0,0,0,0,0,0,0,0,0,0,0,0,0,0,0,0,0,0,0,0,0,0,0,0,0,0,0,0,0,0,0,0,0,0,0,0,0,0,0,0,0,0,0,0,0,0,0,0,0,0,0,0,0,0,0,0,0,0,0,0,0,0,0,0,0,0,0,0,0,0,0,0,0,0,0,0,0,0,0,0,0,0,0,0,0,0,0,0,0,0],"sum_hessian":[6.48E2,3.52E2,2.96E2,2.26E2,1.26E2,2.47E2,4.9E1,2.09E2,1.7E1,1.24E2,2E0,1.7E2,7.7E1,4.1E1,8E0,5.2E1,1.57E2,6E0,1.1E1,4E0,1.2E2,1E0,1E0,1.18E2,5.2E1,6.4E1,1.3E1,2.8E1,1.3E1,3E0,5E0,1.6E1,3.6E1,7.1E1,8.6E1,3E0,3E0,7E0,4E0,2E0,2E0,9E1,3E1,5E0,1.13E2,1.1E1,4.1E1,1.3E1,5.1E1,3E0,1E1,2.2E1,6E0,1E1,3E0,2E0,1E0,1.2E1,4E0,2.6E1,1E1,3.5E1,3.6E1,7.2E1,1.4E1,6E0,1E0,2E0,2E0,7.7E1,1.3E1,2.7E1,3E0,1E0,4E0,5E1,6.3E1,9E0,2E0,3.8E1,3E0,5E0,8E0,4.9E1,2E0,1E0,2E0,7E0,3E0,2.1E1,1E0,4E0,2E0,1E0,9E0],"tree_param":{"num_deleted":"0","num_feature":"22","num_nodes":"95","size_leaf_vector":"1"}},{"base_weights":[1.6893677E-3,-6.0868777E-2,7.213478E-2,-1.1482444E-2,-1.6179028E-1,1.7452209E-1,1.7450962E-2,-3.6903817E-2,2.9733935E-1,-1.3411188E-1,-3.1963405E-1,-2.3570456E-1,2.033578E-1,-2.2595169E-2,1.8180577E-1,-5.4397088E-2,2.246786E-1,3.510605E-1,-3.704616E-3,-2.3031248E-1,-4.820924E-2,-3.8598388E-1,-1.567596E-2,-4.1322052E-2,-6.2054068E-2,2.3138528E-1,-2.4362317E-1,3.3289753E-2,-9.295119E-2,2.1112224E-1,-1.0249392E-1,-3.4970954E-1,-3.9595988E-2,-8.10547E-2,4.3839377E-1,-5.4212403E-3,3.9102376E-1,1.4018893E-2,-2.5367418E-1,6.476387E-3,-1.7790666E-1,-4.5554016E-2,-0E0,6.431398E-3,-1.778229E-2,-0E0,-7.3074824E-3,1.5512764E-1,3.4828693E-1,-0E0,-3.7637513E-2,6.595369E-2,-2.4964407E-1,-1.1640479E-1,1.6386351E-1,2.5092077E-1,-6.5812804E-2,-1.4503059E-2,-0E0,-4.2521562E-2,-2.362554E-3,-1.4904826E-3,-1.9092081E-2,-2.6967427E-2,-0E0,-0E0,5.0502118E-2,5.176849E-3,4.6975076E-2,-3.1270076E-2,-4.9808314E-3,-6.4794584E-3,1.0001839E-2,-3.9162524E-2,-5.1301347E-5,-1.1925123E-2,8.104863E-3,1.8443633E-2,-2.6164858E-2,-9.708409E-3,3.8125135E-2,-0E0,8.695834E-5,3.6019203E-3,3.586963E-2,-3.4202393E-2,1.5790312E-3,-8.1958175E-3,-2.7209619E-2,-0E0,2.2233015E-2,1.2245915E-2,3.3847656E-2,-8.75356E-3,-0E0],"categories":[],"categories_nodes":[],"categories_segments":[],"categories_sizes":[],"default_left":[0,0,0,0,0,0,0,0,0,0,0,0,0,0,0,0,0,0,0,0,0,0,0,0,0,0,0,0,0,0,0,0,0,0,0,0,0,0,0,0,0,0,0,0,0,0,0,0,0,0,0,0,0,0,0,0,0,0,0,0,0,0,0,0,0,0,0,0,0,0,0,0,0,0,0,0,0,0,0,0,0,0,0,0,0,0,0,0,0,0,0,0,0,0,0],"id":13,"left_children":[1,3,5,7,9,11,13,15,17,19,21,23,25,27,29,31,33,35,-1,37,39,41,43,-1,45,47,49,51,53,55,57,59,61,63,65,-1,67,-1,69,71,73,-1,75,-1,-1,-1,-1,77,79,81,-1,83,85,87,89,91,93,-1,-1,-1,-1,-1,-1,-1,-1,-1,-1,-1,-1,-1,-1,-1,-1,-1,-1,-1,-1,-1,-1,-1,-1,-1,-1,-1,-1,-1,-1,-1,-1,-1,-1,-1,-1,-1,-1],"loss_changes":[2.7862928E0,1.6455188E0,1.6462377E0,1.7591819E0,3.8796425E-1,1.2631028E0,1.3100568E0,9.5613945E-1,3.4978747E-1,7.461138E-1,2.562971E-1,1.4261073E-1,1.270339E0,6.3029134E-1,3.5755336E-1,8.1267023E-1,9.2068577E-1,2.9781985E-1,0E0,4.2775488E-1,3.8710964E-1,2.8736556E-1,7.466788E-2,0E0,2.1061841E-3,7.157769E-1,2.105194E-1,8.1136835E-1,4.4197774E-1,4.318024E-1,2.10816E-2,1.6666186E-1,6.8648505E-1,1.0602924E-1,2.4781203E-1,0E0,2.974496E-1,0E0,4.535811E-1,2.5667572E-1,5.671823E-1,0E0,4.1579463E-2,0E0,0E0,0E0,0E0,7.4901557E-1,5.792794E-1,1.5123503E-6,0E0,6.486563E-1,2.587111E-1,2.962547E-1,3.6615297E-2,2.7237844E-1,8.993294E-3,0E0,0E0,0E0,0E0,0E0,0E0,0E0,0E0,0E0,0E0,0E0,0E0,0E0,0E0,0E0,0E0,0E0,0E0,0E0,0E0,0E0,0E0,0E0,0E0,0E0,0E0,0E0,0E0,0E0,0E0,0E0,0E0,0E0,0E0,0E0,0E0,0E0,0E0],"parents":[2147483647,0,0,1,1,2,2,3,3,4,4,5,5,6,6,7,7,8,8,9,9,10,10,11,11,12,12,13,13,14,14,15,15,16,16,17,17,19,19,20,20,21,21,22,22,24,24,25,25,26,26,27,27,28,28,29,29,30,30,31,31,32,32,33,33,34,34,36,36,38,38,39,39,40,40,42,42,47,47,48,48,49,49,51,51,52,52,53,53,54,54,55,55,56,56],"right_children":[2,4,6,8,10,12,14,16,18,20,22,24,26,28,30,32,34,36,-1,38,40,42,44,-1,46,48,50,52,54,56,58,60,62,64,66,-1,68,-1,70,72,74,-1,76,-1,-1,-1,-1,78,80,82,-1,84,86,88,90,92,94,-1,-1,-1,-1,-1,-1,-1,-1,-1,-1,-1,-1,-1,-1,-1,-1,-1,-1,-1,-1,-1,-1,-1,-1,-1,-1,-1,-1,-1,-1,-1,-1,-1,-1,-1,-1,-1,-1],"split_conditions":[5.4837173E-1,1.445883E0,1.0390085E0,8.630298E-1,1.9185103E0,4.1733634E-1,7.8008044E-1,1.4045208E0,7.544118E-1,1.6430491E0,1E0,2.6350462E-1,6.2E1,1.504417E0,8.1233627E-1,5.501398E-1,6.1638576E-1,1.0972358E-1,-3.704616E-3,4.252084E-1,4.9314386E-1,1.9881383E0,5.487504E-1,-4.1322052E-2,4.0812173E-1,8.510867E-1,6.003961E-1,1.8E1,1E0,1E0,3.6026427E-1,7.5935906E-1,1.2774858E0,4.318556E-1,2.1141766E-1,-5.4212403E-3,3.1718844E-1,1.4018893E-2,1.7E1,4.0089747E-1,6.304492E-1,-4.5554016E-2,4.9639305E-1,6.431398E-3,-1.778229E-2,-0E0,-7.3074824E-3,8.4130085E-1,1E0,1.9589229E-1,-3.7637513E-2,1E0,2.8E1,1E0,3.1659573E-1,3.2E1,2.4029702E-1,-1.4503059E-2,-0E0,-4.2521562E-2,-2.362554E-3,-1.4904826E-3,-1.9092081E-2,-2.6967427E-2,-0E0,-0E0,5.0502118E-2,5.176849E-3,4.6975076E-2,-3.1270076E-2,-4.9808314E-3,-6.4794584E-3,1.0001839E-2,-3.9162524E-2,-5.1301347E-5,-1.1925123E-2,8.104863E-3,1.8443633E-2,-2.6164858E-2,-9.708409E-3,3.8125135E-2,-0E0,8.695834E-5,3.6019203E-3,3.586963E-2,-3.4202393E-2,1.5790312E-3,-8.1958175E-3,-2.7209619E-2,-0E0,2.2233015E-2,1.2245915E-2,3.3847656E-2,-8.75356E-3,-0E0],"split_indices":[2,7,7,1,7,1,1,7,0,7,10,6,8,7,6,7,1,0,0,1,2,7,0,0,1,7,2,9,12,19,0,1,7,0,0,0,2,0,9,2,1,0,0,0,0,0,0,7,8,0,0,12,8,14,0,8,0,0,0,0,0,0,0,0,0,0,0,0,0,0,0,0,0,0,0,0,0,0,0,0,0,0,0,0,0,0,0,0,0,0,0,0,0,0,0],"split_type":[0,0,0,0,0,0,0,0,0,0,0,0,0,0,0,0,0,0,0,0,0,0,0,0,0,0,0,0,0,0,0,0,0,0,0,0,0,0,0,0,0,0,0,0,0,0,0,0,0,0,0,0,0,0,0,0,0,0,0,0,0,0,0,0,0,0,0,0,0,0,0,0,0,0,0,0,0,0,0,0,0,0,0,0,0,0,0,0,0,0,0,0,0,0,0],"sum_hessian":[6.3E2,3.33E2,2.97E2,2.25E2,1.08E2,1.02E2,1.95E2,2.09E2,1.6E1,9.4E1,1.4E1,6E0,9.6E1,1.57E2,3.8E1,1.97E2,1.2E1,1.4E1,2E0,4.3E1,5.1E1,1.1E1,3E0,2E0,4E0,9.1E1,5E0,8.7E1,7E1,3.5E1,3E0,8E0,1.89E2,5E0,7E0,1E0,1.3E1,2E0,4.1E1,3.6E1,1.5E1,9E0,2E0,2E0,1E0,1E0,3E0,5.7E1,3.4E1,2E0,3E0,7.9E1,8E0,6.5E1,5E0,3.1E1,4E0,2E0,1E0,6E0,2E0,1.64E2,2.5E1,1E0,4E0,1E0,6E0,3E0,1E1,3.1E1,1E1,2E1,1.6E1,6E0,9E0,1E0,1E0,5.4E1,3E0,2E0,3.2E1,1E0,1E0,7.3E1,6E0,6E0,2E0,5.5E1,1E1,2E0,3E0,1.4E1,1.7E1,3E0,1E0],"tree_param":{"num_deleted":"0","num_feature":"22","num_nodes":"95","size_leaf_vector":"1"}},{"base_weights":[7.1950774E-3,-5.826003E-2,9.8886445E-2,-8.589027E-2,1.8058838E-1,7.008218E-4,1.9856326E-1,-1.2402297E-1,2.0894414E-2,5.3767703E-2,2.8703862E-1,3.4338552E-1,-1.7263973E-2,1.538138E-1,3.3328533E-1,-1.8896517E-1,-8.139942E-2,-2.8337568E-1,4.8165973E-2,-5.985543E-2,2.2998144E-1,4.822949E-1,1.6176488E-1,4.7847793E-2,-0E0,-1.7580824E-1,1.8186755E-2,2.4520247E-1,5.165002E-2,-0E0,3.5692733E-2,-3.559072E-1,-1.4401889E-1,-3.9345976E-2,-1.8280344E-1,-3.2591704E-2,-0E0,-5.6635547E-2,1.1980443E-1,-0E0,-1.7500157E-2,-2.5250681E-3,3.3593394E-2,5.2034527E-2,7.6996195E-3,-0E0,2.1102381E-1,-3.9006788E-1,-1.458126E-2,4.6591412E-2,-2.7886194E-1,3.1142098E-1,3.6079284E-2,-3.501548E-2,1.5548995E-1,-4.4225127E-2,-5.6935713E-4,-1.1258989E-2,-4.2793896E-2,3.834228E-4,-1.4062931E-2,-0E0,-3.4429852E-2,-1.259379E-3,-3.4778986E-2,-0E0,2.3466712E-2,-1.3788545E-4,-0E0,-0E0,-1.6319406E-3,3.0041575E-2,2.3670357E-3,-4.706487E-2,-1.1829782E-3,1.1497944E-3,-8.903926E-3,-2.3685504E-2,6.8981894E-3,-0E0,-3.565548E-2,3.483876E-2,-0E0,-3.582801E-3,3.4501538E-2,4.8788986E-3,-1.3671175E-2,-6.453555E-3,2.428246E-2],"categories":[],"categories_nodes":[],"categories_segments":[],"categories_sizes":[],"default_left":[0,0,0,0,0,0,0,0,0,0,0,0,0,0,0,0,0,0,0,0,0,0,0,0,0,0,0,0,0,0,0,0,0,0,0,0,0,0,0,0,0,0,0,0,0,0,0,0,0,0,0,0,0,0,0,0,0,0,0,0,0,0,0,0,0,0,0,0,0,0,0,0,0,0,0,0,0,0,0,0,0,0,0,0,0,0,0,0,0],"id":14,"left_children":[1,3,5,7,9,11,13,15,17,19,21,23,25,27,29,31,33,35,37,39,41,43,45,-1,-1,47,49,51,53,-1,-1,55,57,59,61,-1,-1,63,65,67,-1,-1,-1,-1,-1,69,71,73,75,77,79,81,83,85,87,-1,-1,-1,-1,-1,-1,-1,-1,-1,-1,-1,-1,-1,-1,-1,-1,-1,-1,-1,-1,-1,-1,-1,-1,-1,-1,-1,-1,-1,-1,-1,-1,-1,-1],"loss_changes":[3.784873E0,2.4280353E0,2.5538712E0,1.3566601E0,4.634893E-1,8.6347914E-1,6.837621E-1,6.3299036E-1,7.1204704E-1,4.111954E-1,3.467853E-1,3.1931043E-1,7.383848E-1,8.9131117E-1,2.5106382E-1,6.115751E-1,6.102506E-1,7.5219154E-2,6.2123543E-1,7.9510115E-2,2.5589073E-1,8.153796E-3,1.2349132E-1,0E0,0E0,7.8291386E-1,8.7570995E-1,6.741011E-1,4.5845962E-1,0E0,0E0,5.27226E-1,5.8486164E-1,4.8654968E-1,1.2895185E0,0E0,0E0,3.8273892E-1,6.734146E-1,1.3308678E-5,0E0,0E0,0E0,0E0,0E0,5.3264596E-4,1.4470717E-1,2.509718E-1,3.7904978E-2,6.1516213E-1,1.9004327E-1,4.657483E-1,3.5428658E-1,2.4557252E-1,4.754641E-1,0E0,0E0,0E0,0E0,0E0,0E0,0E0,0E0,0E0,0E0,0E0,0E0,0E0,0E0,0E0,0E0,0E0,0E0,0E0,0E0,0E0,0E0,0E0,0E0,0E0,0E0,0E0,0E0,0E0,0E0,0E0,0E0,0E0,0E0],"parents":[2147483647,0,0,1,1,2,2,3,3,4,4,5,5,6,6,7,7,8,8,9,9,10,10,11,11,12,12,13,13,14,14,15,15,16,16,17,17,18,18,19,19,20,20,21,21,22,22,25,25,26,26,27,27,28,28,31,31,32,32,33,33,34,34,37,37,38,38,39,39,45,45,46,46,47,47,48,48,49,49,50,50,51,51,52,52,53,53,54,54],"right_children":[2,4,6,8,10,12,14,16,18,20,22,24,26,28,30,32,34,36,38,40,42,44,46,-1,-1,48,50,52,54,-1,-1,56,58,60,62,-1,-1,64,66,68,-1,-1,-1,-1,-1,70,72,74,76,78,80,82,84,86,88,-1,-1,-1,-1,-1,-1,-1,-1,-1,-1,-1,-1,-1,-1,-1,-1,-1,-1,-1,-1,-1,-1,-1,-1,-1,-1,-1,-1,-1,-1,-1,-1,-1,-1],"split_conditions":[5.855996E-1,8.720514E-1,6.7089635E-1,7.675126E-1,3.953615E1,1.3504421E1,7.8991044E-1,2.8E1,1.4551579E1,7.227672E-1,2.9E1,1E0,3.0663834E1,4.9272814E-1,2.0930493E-1,3.7890118E-1,6.8826574E-1,5.3884244E-1,4.1537556E-1,5.4791206E-1,9.129993E-1,1E0,9.0930223E-1,4.7847793E-2,-0E0,7E0,1E0,1.4E1,7.025596E-1,-0E0,3.5692733E-2,1.7E1,2.5E1,5.3E1,8E0,-3.2591704E-2,-0E0,8.8547015E-1,4.377834E-1,1E0,-1.7500157E-2,-2.5250681E-3,3.3593394E-2,5.2034527E-2,7.6996195E-3,5.3058124E-1,6.9279526E1,6.6027194E-1,3.4E1,4.3072313E-1,4.0229136E-1,1E0,1E0,3.4E1,7E0,-4.4225127E-2,-5.6935713E-4,-1.1258989E-2,-4.2793896E-2,3.834228E-4,-1.4062931E-2,-0E0,-3.4429852E-2,-1.259379E-3,-3.4778986E-2,-0E0,2.3466712E-2,-1.3788545E-4,-0E0,-0E0,-1.6319406E-3,3.0041575E-2,2.3670357E-3,-4.706487E-2,-1.1829782E-3,1.1497944E-3,-8.903926E-3,-2.3685504E-2,6.8981894E-3,-0E0,-3.565548E-2,3.483876E-2,-0E0,-3.582801E-3,3.4501538E-2,4.8788986E-3,-1.3671175E-2,-6.453555E-3,2.428246E-2],"split_indices":[2,3,3,1,5,5,1,8,5,1,8,21,5,4,4,3,4,4,4,1,3,13,3,0,0,9,14,9,2,0,0,8,8,8,9,0,0,1,2,10,0,0,0,0,0,1,5,1,8,1,4,16,12,8,9,0,0,0,0,0,0,0,0,0,0,0,0,0,0,0,0,0,0,0,0,0,0,0,0,0,0,0,0,0,0,0,0,0,0],"split_type":[0,0,0,0,0,0,0,0,0,0,0,0,0,0,0,0,0,0,0,0,0,0,0,0,0,0,0,0,0,0,0,0,0,0,0,0,0,0,0,0,0,0,0,0,0,0,0,0,0,0,0,0,0,0,0,0,0,0,0,0,0,0,0,0,0,0,0,0,0,0,0,0,0,0,0,0,0,0,0,0,0,0,0,0,0,0,0,0,0],"sum_hessian":[6.28E2,3.66E2,2.62E2,3.29E2,3.7E1,1.33E2,1.29E2,2.43E2,8.6E1,1.8E1,1.9E1,6E0,1.27E2,9.9E1,3E1,9.4E1,1.49E2,6E0,8E1,1.1E1,7E0,6E0,1.3E1,4E0,2E0,2.3E1,1.04E2,5.1E1,4.8E1,2E0,2.8E1,1.8E1,7.6E1,1.07E2,4.2E1,5E0,1E0,3.2E1,4.8E1,8E0,3E0,2E0,5E0,5E0,1E0,3E0,1E1,9E0,1.4E1,9.6E1,8E0,3.8E1,1.3E1,2.6E1,2.2E1,1.4E1,4E0,7E1,6E0,7.5E1,3.2E1,2E1,2.2E1,2.9E1,3E0,2.4E1,2.4E1,6E0,2E0,2E0,1E0,6E0,4E0,7E0,2E0,1E1,4E0,6E0,9E1,2E0,6E0,3.4E1,4E0,1.1E1,2E0,1.4E1,1.2E1,6E0,1.6E1],"tree_param":{"num_deleted":"0","num_feature":"22","num_nodes":"89","size_leaf_vector":"1"}},{"base_weights":[-4.373736E-3,-7.274893E-2,6.787124E-2,-1.541408E-1,-4.6119057E-2,1.1998053E-1,-1.1937921E-2,-6.820352E-2,-2.1400306E-1,-6.375538E-2,1.5576822E-1,4.509282E-3,1.6905138E-1,5.53502E-2,-1.03740156E-1,-2.0504908E-1,1.7434727E-2,-2.960024E-1,-1.0654912E-1,-8.1291534E-2,9.4781525E-2,2.4905886E-1,-8.67531E-2,-2.5514168E-1,4.1298658E-2,1.0078726E-1,2.7021182E-1,2.6410796E-2,2.6744667E-1,-1.4333677E-1,7.085895E-2,-3.163903E-1,-0E0,1.0356116E-1,-6.901544E-2,-1.12059176E-1,-4.0449393E-1,7.208356E-2,-2.0138328E-1,-5.532222E-2,-1.9851774E-1,-1.0659927E-1,2.389977E-1,-0E0,3.0646855E-1,-2.1115322E-2,3.2352563E-3,-1.8395027E-2,-4.0310293E-2,1.6883977E-1,-1.7298494E-2,4.3220837E-2,2.486599E-1,-1.3709396E-1,2.9998755E-1,-2.3558335E-2,1.0419485E-1,3.7435792E-2,-2.191392E-4,-3.5711148E-1,-9.755362E-2,-3.0660653E-2,1.5797806E-1,-0E0,-3.5535365E-2,-1.5756138E-2,5.8389707E-3,5.319839E-3,2.7877582E-2,-3.1724956E-2,-2.4670744E-4,-2.8584754E-2,1.3798109E-3,-4.360046E-2,-0E0,-0E0,1.153179E-2,5.7215337E-3,-3.0971145E-2,-8.549984E-3,6.4111734E-3,5.9009246E-3,-2.345516E-2,8.1384744E-5,-1.6703544E-2,-3.3984936E-3,3.2562796E-2,-2.611811E-3,3.48169E-2,-0E0,2.856164E-3,1.2859863E-3,-6.6433284E-3,-0E0,2.9666442E-2,-8.504006E-3,1.1693797E-2,1.5608645E-2,-1.0652982E-2,-0E0,4.886027E-2,-0E0,-1.6179085E-2,3.421729E-2,-0E0,1.8875633E-3,-7.9668835E-3,2.3742443E-2,-0E0,-0E0,-4.214115E-2,-1.3266712E-2,1.4072895E-2,-1.8213397E-3,2.6577601E-2],"categories":[],"categories_nodes":[],"categories_segments":[],"categories_sizes":[],"default_left":[0,0,0,0,0,0,0,0,0,0,0,0,0,0,0,0,0,0,0,0,0,0,0,0,0,0,0,0,0,0,0,0,0,0,0,0,0,0,0,0,0,0,0,0,0,0,0,0,0,0,0,0,0,0,0,0,0,0,0,0,0,0,0,0,0,0,0,0,0,0,0,0,0,0,0,0,0,0,0,0,0,0,0,0,0,0,0,0,0,0,0,0,0,0,0,0,0,0,0,0,0,0,0,0,0,0,0,0,0,0,0,0,0,0,0],"id":15,"left_children":[1,3,5,7,9,11,13,15,17,19,21,23,25,27,29,31,33,35,37,39,41,43,45,47,49,51,53,55,57,59,61,63,65,67,69,71,73,75,77,79,81,83,85,-1,87,-1,89,91,-1,93,95,97,99,101,103,105,107,-1,-1,109,111,-1,113,-1,-1,-1,-1,-1,-1,-1,-1,-1,-1,-1,-1,-1,-1,-1,-1,-1,-1,-1,-1,-1,-1,-1,-1,-1,-1,-1,-1,-1,-1,-1,-1,-1,-1,-1,-1,-1,-1,-1,-1,-1,-1,-1,-1,-1,-1,-1,-1,-1,-1,-1,-1],"loss_changes":[3.1668746E0,6.8812525E-1,1.305623E0,3.6873543E-1,8.944275E-1,1.0528071E0,7.703766E-1,4.325089E-1,3.3351898E-1,6.513457E-1,4.9033657E-1,5.4319173E-1,8.47209E-1,3.9934486E-1,3.8382173E-1,3.1229377E-1,1.7440608E-1,4.0192485E-1,4.0013704E-1,6.029334E-1,7.066913E-1,1.9662088E-1,8.86423E-2,1.9564041E-1,4.0669918E-1,6.49577E-1,6.8806314E-1,2.592736E-1,2.6865578E-1,3.5033625E-1,3.6241886E-1,1.0928428E-1,6.669796E-2,5.7863697E-2,1.4896101E-1,2.7174693E-1,2.0716953E-1,2.4922758E-2,4.6317255E-1,6.347568E-1,3.7474346E-1,8.167447E-2,3.7131053E-1,0E0,2.0772672E-1,0E0,2.4054341E-3,1.2217385E-2,0E0,3.9548096E-1,3.3411658E-1,1.0356853E0,1.2657603E0,3.3498183E-3,6.2490416E-1,1.0044178E-1,3.3780333E-1,0E0,0E0,1.7282581E-1,3.3580747E-1,0E0,2.0053467E-1,0E0,0E0,0E0,0E0,0E0,0E0,0E0,0E0,0E0,0E0,0E0,0E0,0E0,0E0,0E0,0E0,0E0,0E0,0E0,0E0,0E0,0E0,0E0,0E0,0E0,0E0,0E0,0E0,0E0,0E0,0E0,0E0,0E0,0E0,0E0,0E0,0E0,0E0,0E0,0E0,0E0,0E0,0E0,0E0,0E0,0E0,0E0,0E0,0E0,0E0,0E0,0E0],"parents":[2147483647,0,0,1,1,2,2,3,3,4,4,5,5,6,6,7,7,8,8,9,9,10,10,11,11,12,12,13,13,14,14,15,15,16,16,17,17,18,18,19,19,20,20,21,21,22,22,23,23,24,24,25,25,26,26,27,27,28,28,29,29,30,30,31,31,32,32,33,33,34,34,35,35,36,36,37,37,38,38,39,39,40,40,41,41,42,42,44,44,46,46,47,47,49,49,50,50,51,51,52,52,53,53,54,54,55,55,56,56,59,59,60,60,62,62],"right_children":[2,4,6,8,10,12,14,16,18,20,22,24,26,28,30,32,34,36,38,40,42,44,46,48,50,52,54,56,58,60,62,64,66,68,70,72,74,76,78,80,82,84,86,-1,88,-1,90,92,-1,94,96,98,100,102,104,106,108,-1,-1,110,112,-1,114,-1,-1,-1,-1,-1,-1,-1,-1,-1,-1,-1,-1,-1,-1,-1,-1,-1,-1,-1,-1,-1,-1,-1,-1,-1,-1,-1,-1,-1,-1,-1,-1,-1,-1,-1,-1,-1,-1,-1,-1,-1,-1,-1,-1,-1,-1,-1,-1,-1,-1,-1,-1],"split_conditions":[5.4600084E-1,5.093569E-1,1.3151088E0,1.1133908E0,1E0,8.0050975E-1,5.054924E-1,6.906539E-1,4.3710643E-1,1E0,4.7E1,4.3072313E-1,5.693057E-1,8.1478137E-1,7.8008044E-1,4.627749E-1,4.2272723E-1,3.6564398E-1,4.614049E-1,7.378791E-1,4.2626214E-1,6E0,5.6941175E-1,2.6E1,3.7951022E-1,4.7E1,2.0930493E-1,3.674447E-1,1.8302473E0,6.0360354E-1,8E0,4.0055606E-1,2.5933632E-1,7.896768E-1,4.4064227E-1,4.746565E-1,1E0,1.5715814E0,7E0,1.7E1,5.7082057E-1,3.2243028E-1,7.4707663E-1,-0E0,2.3377177E-1,-2.1115322E-2,6.1453116E-1,4.0535766E-1,-4.0310293E-2,6.3463414E-1,1.6E1,6.86076E-1,5.704793E-1,5.093569E-1,5.3E1,5.693057E-1,4.0589508E-1,3.7435792E-2,-2.191392E-4,4.900793E-1,1E0,-3.0660653E-2,1.4045208E0,-0E0,-3.5535365E-2,-1.5756138E-2,5.8389707E-3,5.319839E-3,2.7877582E-2,-3.1724956E-2,-2.4670744E-4,-2.8584754E-2,1.3798109E-3,-4.360046E-2,-0E0,-0E0,1.153179E-2,5.7215337E-3,-3.0971145E-2,-8.549984E-3,6.4111734E-3,5.9009246E-3,-2.345516E-2,8.1384744E-5,-1.6703544E-2,-3.3984936E-3,3.2562796E-2,-2.611811E-3,3.48169E-2,-0E0,2.856164E-3,1.2859863E-3,-6.6433284E-3,-0E0,2.9666442E-2,-8.504006E-3,1.1693797E-2,1.5608645E-2,-1.0652982E-2,-0E0,4.886027E-2,-0E0,-1.6179085E-2,3.421729E-2,-0E0,1.8875633E-3,-7.9668835E-3,2.3742443E-2,-0E0,-0E0,-4.214115E-2,-1.3266712E-2,1.4072895E-2,-1.8213397E-3,2.6577601E-2],"split_indices":[2,1,7,7,14,7,4,7,2,18,8,1,6,1,1,1,2,2,2,4,4,8,1,8,4,8,4,4,7,4,8,1,6,4,2,4,20,7,9,9,1,2,7,0,4,0,1,1,0,2,9,2,1,1,8,6,4,0,0,1,13,0,7,0,0,0,0,0,0,0,0,0,0,0,0,0,0,0,0,0,0,0,0,0,0,0,0,0,0,0,0,0,0,0,0,0,0,0,0,0,0,0,0,0,0,0,0,0,0,0,0,0,0,0,0],"split_type":[0,0,0,0,0,0,0,0,0,0,0,0,0,0,0,0,0,0,0,0,0,0,0,0,0,0,0,0,0,0,0,0,0,0,0,0,0,0,0,0,0,0,0,0,0,0,0,0,0,0,0,0,0,0,0,0,0,0,0,0,0,0,0,0,0,0,0,0,0,0,0,0,0,0,0,0,0,0,0,0,0,0,0,0,0,0,0,0,0,0,0,0,0,0,0,0,0,0,0,0,0,0,0,0,0,0,0,0,0,0,0,0,0,0,0],"sum_hessian":[6.39E2,3.29E2,3.1E2,7.9E1,2.5E2,1.88E2,1.22E2,3.4E1,4.5E1,2.31E2,1.9E1,5.7E1,1.31E2,7E1,5.2E1,1.3E1,2.1E1,2.4E1,2.1E1,2.09E2,2.2E1,1.4E1,5E0,6E0,5.1E1,8E1,5.1E1,6.3E1,7E0,4.3E1,9E0,8E0,5E0,1.1E1,1E1,1E1,1.4E1,7E0,1.4E1,1.73E2,3.6E1,9E0,1.3E1,3E0,1.1E1,2E0,3E0,3E0,3E0,1.6E1,3.5E1,5.9E1,2.1E1,3E0,4.8E1,3.8E1,2.5E1,5E0,2E0,6E0,3.7E1,1E0,8E0,1E0,7E0,1E0,4E0,1E1,1E0,1E0,9E0,4E0,6E0,1.3E1,1E0,3E0,4E0,4E0,1E1,1.39E2,3.4E1,4E0,3.2E1,3E0,6E0,3E0,1E1,1E0,1E1,1E0,2E0,1E0,2E0,7E0,9E0,2.4E1,1.1E1,3.4E1,2.5E1,1.1E1,1E1,1E0,2E0,4.2E1,6E0,2.1E1,1.7E1,1E1,1.5E1,1E0,5E0,3.3E1,4E0,3E0,5E0],"tree_param":{"num_deleted":"0","num_feature":"22","num_nodes":"115","size_leaf_vector":"1"}},{"base_weights":[-1.0096051E-3,-3.158516E-2,1.7472088E-1,-1.209604E-1,8.302068E-3,2.8385702E-1,8.338814E-2,-2.275423E-2,-1.8519124E-1,4.449381E-2,-1.0795509E-1,3.2321718E-1,3.2219533E-2,2.93092E-2,2.7319974E-1,-0E0,-4.0394407E-2,-1.3207202E-1,-3.1159812E-1,-3.242091E-1,5.132482E-2,-4.2173164E-3,-1.6641675E-1,9.023515E-2,3.4714276E-1,2.9709348E-2,-1.13148745E-2,-2.5714898E-2,6.0502112E-2,2.0617645E-2,4.0030126E-2,4.7403216E-2,-2.244119E-1,8.416834E-2,-1.5452066E-1,-3.660932E-1,8.189563E-3,-3.8701545E-2,-0E0,-1.4773506E-2,7.455069E-2,-5.4960012E-2,1.7782126E-1,-2.0007274E-1,1.9015759E-1,-0E0,2.2785535E-2,3.789167E-1,1.2939399E-2,1.772839E-1,-0E0,1.665957E-2,-3.25258E-2,9.3605E-3,-5.277743E-3,-3.2547876E-2,8.8248163E-4,-0E0,9.19648E-3,-3.9968092E-2,-1.3064451E-2,-3.910784E-2,6.677543E-3,-9.279257E-3,1.5112764E-2,2.0227773E-2,4.680229E-3,-0E0,-1.5124068E-2,2.0237673E-2,-0E0,-2.3163347E-2,5.857157E-3,2.6278054E-2,-1.671426E-5,4.6357466E-3,3.8581308E-2,1.2683376E-2,-3.3969965E-3,-1.2154238E-2,2.5175616E-2,-7.5530284E-3,3.8666532E-3,-9.441788E-3,-0E0],"categories":[],"categories_nodes":[],"categories_segments":[],"categories_sizes":[],"default_left":[0,0,0,0,0,0,0,0,0,0,0,0,0,0,0,0,0,0,0,0,0,0,0,0,0,0,0,0,0,0,0,0,0,0,0,0,0,0,0,0,0,0,0,0,0,0,0,0,0,0,0,0,0,0,0,0,0,0,0,0,0,0,0,0,0,0,0,0,0,0,0,0,0,0,0,0,0,0,0,0,0,0,0,0,0],"id":16,"left_children":[1,3,5,7,9,11,13,15,17,19,21,23,25,27,29,31,-1,33,35,37,39,41,43,45,47,-1,-1,-1,49,51,-1,53,55,57,59,61,-1,-1,-1,63,65,67,69,71,73,-1,-1,75,77,79,81,-1,83,-1,-1,-1,-1,-1,-1,-1,-1,-1,-1,-1,-1,-1,-1,-1,-1,-1,-1,-1,-1,-1,-1,-1,-1,-1,-1,-1,-1,-1,-1,-1,-1],"loss_changes":[3.3386195E0,1.9088132E0,8.566339E-1,1.0157893E0,1.5468351E0,3.601265E-1,4.9551195E-1,6.1799353E-1,5.7922864E-1,6.9960034E-1,5.098623E-1,1.2003589E-1,3.215401E-1,3.711829E-1,3.0279404E-1,6.7530924E-1,0E0,3.695507E-1,6.5881824E-1,7.35662E-2,4.3386227E-1,3.0231217E-1,6.9908416E-1,6.3124195E-2,2.8509903E-1,0E0,0E0,0E0,2.6582485E-1,5.7614535E-2,0E0,2.589633E-1,2.9383522E-1,1.1549778E-3,2.8108144E-1,3.2892704E-1,0E0,0E0,0E0,9.401184E-1,6.992785E-1,1.4718117E-1,2.4395213E-2,4.4718623E-1,9.541501E-2,0E0,0E0,3.1142235E-3,3.496576E-2,3.32926E-1,7.975032E-2,0E0,1.3597762E-2,0E0,0E0,0E0,0E0,0E0,0E0,0E0,0E0,0E0,0E0,0E0,0E0,0E0,0E0,0E0,0E0,0E0,0E0,0E0,0E0,0E0,0E0,0E0,0E0,0E0,0E0,0E0,0E0,0E0,0E0,0E0,0E0],"parents":[2147483647,0,0,1,1,2,2,3,3,4,4,5,5,6,6,7,7,8,8,9,9,10,10,11,11,12,12,13,13,14,14,15,15,17,17,18,18,19,19,20,20,21,21,22,22,23,23,24,24,28,28,29,29,31,31,32,32,33,33,34,34,35,35,39,39,40,40,41,41,42,42,43,43,44,44,47,47,48,48,49,49,50,50,52,52],"right_children":[2,4,6,8,10,12,14,16,18,20,22,24,26,28,30,32,-1,34,36,38,40,42,44,46,48,-1,-1,-1,50,52,-1,54,56,58,60,62,-1,-1,-1,64,66,68,70,72,74,-1,-1,76,78,80,82,-1,84,-1,-1,-1,-1,-1,-1,-1,-1,-1,-1,-1,-1,-1,-1,-1,-1,-1,-1,-1,-1,-1,-1,-1,-1,-1,-1,-1,-1,-1,-1,-1,-1],"split_conditions":[8.611669E-1,4.6883997E-1,1.2236354E0,1.1380347E0,1.5715814E0,5.8E1,7.897742E-1,8.147038E-1,6.802707E1,5.3136426E-1,3.8152945E-1,6.08344E-1,8.6669827E-1,1.2618461E0,5.090739E-1,1.9E1,-4.0394407E-2,2.3009355E-1,9.712688E1,3.7860438E-1,3.1433199E1,3.476667E-1,1E0,6.664581E-1,9.170547E1,2.9709348E-2,-1.13148745E-2,-2.5714898E-2,1.5035803E0,5.096182E-1,4.0030126E-2,1E0,5.381464E-1,2.9047784E-1,2.566329E-1,1E0,8.189563E-3,-3.8701545E-2,-0E0,7.0994574E-1,4.4113644E1,5.612132E-1,7.92855E-1,1E0,4.7247842E-1,-0E0,2.2785535E-2,2.0496757E-1,5.2676886E-1,1.4551579E1,8.7629277E-1,1.665957E-2,8.641469E-1,9.3605E-3,-5.277743E-3,-3.2547876E-2,8.8248163E-4,-0E0,9.19648E-3,-3.9968092E-2,-1.3064451E-2,-3.910784E-2,6.677543E-3,-9.279257E-3,1.5112764E-2,2.0227773E-2,4.680229E-3,-0E0,-1.5124068E-2,2.0237673E-2,-0E0,-2.3163347E-2,5.857157E-3,2.6278054E-2,-1.671426E-5,4.6357466E-3,3.8581308E-2,1.2683376E-2,-3.3969965E-3,-1.2154238E-2,2.5175616E-2,-7.5530284E-3,3.8666532E-3,-9.441788E-3,-0E0],"split_indices":[3,3,7,7,7,8,6,4,5,7,4,7,3,7,0,9,0,0,5,0,5,4,18,0,5,0,0,0,7,4,0,11,6,4,0,13,0,0,0,6,5,0,3,12,0,0,0,6,0,5,3,0,3,0,0,0,0,0,0,0,0,0,0,0,0,0,0,0,0,0,0,0,0,0,0,0,0,0,0,0,0,0,0,0,0],"split_type":[0,0,0,0,0,0,0,0,0,0,0,0,0,0,0,0,0,0,0,0,0,0,0,0,0,0,0,0,0,0,0,0,0,0,0,0,0,0,0,0,0,0,0,0,0,0,0,0,0,0,0,0,0,0,0,0,0,0,0,0,0,0,0,0,0,0,0,0,0,0,0,0,0,0,0,0,0,0,0,0,0,0,0,0,0],"sum_hessian":[6.22E2,5.31E2,9.1E1,1.64E2,3.67E2,4E1,5.1E1,6.6E1,9.8E1,2.81E2,8.6E1,3.4E1,6E0,4.1E1,1E1,6.3E1,3E0,7.1E1,2.7E1,4E0,2.77E2,3.2E1,5.4E1,4E0,3E1,2E0,4E0,3E0,3.8E1,4E0,6E0,5.3E1,1E1,6E0,6.5E1,2.4E1,3E0,3E0,1E0,7.1E1,2.06E2,2.6E1,6E0,5E1,4E0,3E0,1E0,2.7E1,3E0,1.2E1,2.6E1,1E0,3E0,3.7E1,1.6E1,7E0,3E0,1E0,5E0,4E0,6.1E1,2.3E1,1E0,4.9E1,2.2E1,3.5E1,1.71E2,1.7E1,9E0,5E0,1E0,4.5E1,5E0,3E0,1E0,1E0,2.6E1,1E0,2E0,2E0,1E1,8E0,1.8E1,1E0,2E0],"tree_param":{"num_deleted":"0","num_feature":"22","num_nodes":"85","size_leaf_vector":"1"}},{"base_weights":[-3.1009293E-3,-8.345341E-2,5.0353363E-2,8.279328E-2,-1.0240083E-1,2.3833208E-3,1.3469158E-1,3.0172596E-2,4.4282764E-2,-1.2121812E-1,9.530076E-2,1.7582428E-2,-2.0905285E-1,4.843271E-2,2.3365545E-1,-1.4873369E-1,9.0344444E-2,-3.8187325E-1,-1.1118967E-1,2.7568612E-1,-1.534414E-2,-9.6064344E-2,5.6384347E-2,1.8171085E-2,-3.230793E-1,1.2410896E-1,-3.4219597E-2,3.0650052E-1,1.2147311E-1,-0E0,-2.076477E-2,1.4514433E-1,-1.0047397E-2,-4.9496844E-2,9.83489E-3,5.953158E-2,-1.2364469E-1,-0E0,3.584748E-2,-5.610294E-2,1.8688073E-2,-5.326152E-2,-3.1207287E-1,1.1021949E-1,-1.3603758E-4,-9.155028E-3,1.2740083E-2,-4.3190736E-1,-1.4373799E-1,1.7724691E-1,-4.3029554E-2,1.256577E-1,-1.1359191E-1,-0E0,3.4656674E-1,-8.6087994E-2,1.6566147E-1,4.9647717E-3,2.3161575E-2,-1.9139033E-3,-0E0,1.4406294E-2,-6.0520717E-3,-1.4819239E-2,-1.4765261E-3,4.9251895E-3,-1.2743684E-2,-1.0932016E-2,-0E0,-0E0,-3.5579443E-2,-3.22761E-2,1.2503239E-2,-2.232349E-2,2.4969564E-3,-1.2805884E-3,-0E0,-4.8612416E-2,-3.041173E-3,-2.3300214E-2,-1.5855378E-3,-2.002156E-3,2.6340319E-2,1.6825875E-2,-1.7190436E-2,-9.869285E-3,2.626696E-2,-2.7128551E-2,2.9561736E-4,1.7892225E-2,-1.1350672E-2,3.6653385E-2,-9.619065E-3,-0E0,-1.093639E-2,2.028066E-2,-1.162415E-2],"categories":[],"categories_nodes":[],"categories_segments":[],"categories_sizes":[],"default_left":[0,0,0,0,0,0,0,0,0,0,0,0,0,0,0,0,0,0,0,0,0,0,0,0,0,0,0,0,0,0,0,0,0,0,0,0,0,0,0,0,0,0,0,0,0,0,0,0,0,0,0,0,0,0,0,0,0,0,0,0,0,0,0,0,0,0,0,0,0,0,0,0,0,0,0,0,0,0,0,0,0,0,0,0,0,0,0,0,0,0,0,0,0,0,0,0,0],"id":17,"left_children":[1,3,5,7,9,11,13,15,-1,17,19,21,23,25,27,29,31,33,35,37,39,41,43,45,47,49,51,53,55,-1,-1,57,59,-1,-1,61,63,-1,-1,65,-1,67,69,71,73,75,-1,77,79,81,83,85,87,89,91,93,95,-1,-1,-1,-1,-1,-1,-1,-1,-1,-1,-1,-1,-1,-1,-1,-1,-1,-1,-1,-1,-1,-1,-1,-1,-1,-1,-1,-1,-1,-1,-1,-1,-1,-1,-1,-1,-1,-1,-1,-1],"loss_changes":[2.7263641E0,8.105254E-1,1.5233405E0,4.3191534E-1,8.6607146E-1,7.6865697E-1,1.129977E0,2.659613E-1,0E0,4.5716667E-1,4.294387E-1,1.0112728E0,4.5091403E-1,4.823472E-1,4.3480253E-1,3.973998E-2,1.1949578E-1,4.685173E-1,4.4754457E-1,1.6300255E-1,1.04558535E-1,4.831E-1,5.34382E-1,3.0899884E-2,9.504509E-2,3.763045E-1,4.6990106E-1,4.8770523E-1,2.6985708E-1,0E0,0E0,6.772491E-2,1.1248614E-3,0E0,0E0,1.5914759E-1,4.9200916E-1,0E0,0E0,1.0427944E-1,0E0,1.5693295E-1,1.3621211E-1,5.914016E-1,4.958872E-1,2.3689008E-4,0E0,6.416929E-2,3.9911896E-2,5.5648524E-1,3.0158636E-1,4.1118562E-1,4.8710707E-1,1.1556143E-1,3.540306E-1,1.0786127E-2,2.730714E-1,0E0,0E0,0E0,0E0,0E0,0E0,0E0,0E0,0E0,0E0,0E0,0E0,0E0,0E0,0E0,0E0,0E0,0E0,0E0,0E0,0E0,0E0,0E0,0E0,0E0,0E0,0E0,0E0,0E0,0E0,0E0,0E0,0E0,0E0,0E0,0E0,0E0,0E0,0E0,0E0],"parents":[2147483647,0,0,1,1,2,2,3,3,4,4,5,5,6,6,7,7,9,9,10,10,11,11,12,12,13,13,14,14,15,15,16,16,17,17,18,18,19,19,20,20,21,21,22,22,23,23,24,24,25,25,26,26,27,27,28,28,31,31,32,32,35,35,36,36,39,39,41,41,42,42,43,43,44,44,45,45,47,47,48,48,49,49,50,50,51,51,52,52,53,53,54,54,55,55,56,56],"right_children":[2,4,6,8,10,12,14,16,-1,18,20,22,24,26,28,30,32,34,36,38,40,42,44,46,48,50,52,54,56,-1,-1,58,60,-1,-1,62,64,-1,-1,66,-1,68,70,72,74,76,-1,78,80,82,84,86,88,90,92,94,96,-1,-1,-1,-1,-1,-1,-1,-1,-1,-1,-1,-1,-1,-1,-1,-1,-1,-1,-1,-1,-1,-1,-1,-1,-1,-1,-1,-1,-1,-1,-1,-1,-1,-1,-1,-1,-1,-1,-1,-1],"split_conditions":[5.851E-1,2.6029503E-1,7.227672E-1,1E0,8.658702E-1,8.533892E-1,5.285458E-1,2.4514835E-1,4.4282764E-2,2.689828E-1,3.681578E-1,3.507515E-1,9.593589E-1,5.3751743E1,7.3457456E-1,2.3392497E-1,4.7228017E-1,1.4761825E0,3.059873E-1,3.891213E-1,1E0,1.7444657E0,1.3004254E0,7.6299E-1,4.172342E-1,7.3663414E-1,2.8577015E-1,1.6827798E-1,2.9845385E1,-0E0,-2.076477E-2,1.1380347E0,2.4403523E-1,-4.9496844E-2,9.83489E-3,3.7578953E1,1E0,-0E0,3.584748E-2,5.356185E1,1.8688073E-2,1.0747467E0,1E1,5.3136426E-1,4.403077E-1,8.603277E-1,1.2740083E-2,6.773435E-1,4.900793E-1,8.1651E-1,2.9E1,1.451004E-1,8.0943465E-1,7.309173E-1,8.93448E-1,1.9505434E-1,8.533892E-1,4.9647717E-3,2.3161575E-2,-1.9139033E-3,-0E0,1.4406294E-2,-6.0520717E-3,-1.4819239E-2,-1.4765261E-3,4.9251895E-3,-1.2743684E-2,-1.0932016E-2,-0E0,-0E0,-3.5579443E-2,-3.22761E-2,1.2503239E-2,-2.232349E-2,2.4969564E-3,-1.2805884E-3,-0E0,-4.8612416E-2,-3.041173E-3,-2.3300214E-2,-1.5855378E-3,-2.002156E-3,2.6340319E-2,1.6825875E-2,-1.7190436E-2,-9.869285E-3,2.626696E-2,-2.7128551E-2,2.9561736E-4,1.7892225E-2,-1.1350672E-2,3.6653385E-2,-9.619065E-3,-0E0,-1.093639E-2,2.028066E-2,-1.162415E-2],"split_indices":[3,6,1,20,1,6,4,0,0,6,0,6,7,5,4,6,3,7,6,3,15,7,7,0,0,0,0,0,5,0,0,7,6,0,0,5,10,0,0,5,0,7,8,7,1,3,0,1,1,7,8,0,1,1,1,0,6,0,0,0,0,0,0,0,0,0,0,0,0,0,0,0,0,0,0,0,0,0,0,0,0,0,0,0,0,0,0,0,0,0,0,0,0,0,0,0,0],"split_type":[0,0,0,0,0,0,0,0,0,0,0,0,0,0,0,0,0,0,0,0,0,0,0,0,0,0,0,0,0,0,0,0,0,0,0,0,0,0,0,0,0,0,0,0,0,0,0,0,0,0,0,0,0,0,0,0,0,0,0,0,0,0,0,0,0,0,0,0,0,0,0,0,0,0,0,0,0,0,0,0,0,0,0,0,0,0,0,0,0,0,0,0,0,0,0,0,0],"sum_hessian":[6.32E2,2.53E2,3.79E2,2.5E1,2.28E2,2.43E2,1.36E2,2.3E1,2E0,2.09E2,1.9E1,2.28E2,1.5E1,7.4E1,6.2E1,5E0,1.8E1,6E0,2.03E2,7E0,1.2E1,5.7E1,1.71E2,5E0,1E1,3.9E1,3.5E1,3.6E1,2.6E1,2E0,3E0,1.2E1,6E0,5E0,1E0,1.3E1,1.9E2,2E0,5E0,1.1E1,1E0,4.9E1,8E0,8.8E1,8.3E1,4E0,1E0,5E0,5E0,3E1,9E0,1.1E1,2.4E1,4E0,3.2E1,4E0,2.2E1,7E0,5E0,4E0,2E0,8E0,5E0,1.54E2,3.6E1,4E0,7E0,2.4E1,2.5E1,1E0,7E0,2E0,8.6E1,8E0,